tree
version=v4
num_class=3
num_tree_per_iteration=3
label_index=0
max_feature_idx=22
objective=multiclass num_class:3
feature_names=Column_0 Column_1 Column_2 Column_3 Column_4 Column_5 Column_6 Column_7 Column_8 Column_9 Column_10 Column_11 Column_12 Column_13 Column_14 Column_15 Column_16 Column_17 Column_18 Column_19 Column_20 Column_21 Column_22
feature_infos=[1:6] none none [0:17] [-29:60] [-29:60] [0:12] [0:12] none none none none [0:1] [0:1] none none none none none none none none none
tree_sizes=6710 6595 6619 6781 6789 6780 6818 6814 6797 6815 6846 6827 6811 6825 6810 6786 6836 6842 6839 6834 6828 6844 6835 6829 6826 6831 6830 6813 6853 6797 6823 6836 6841 6843 6851 6838 6827 6858 6867 6831 6848 6846 6845 6841 6834 6825 6868 6807 6849 6868 6827 6865 6860 6828 6820 6854 6819 6813 6877 6832 6879 6890 6843 6857 6848 6860 6874 6816 6837 6850 6915 6831 6885 6897 6873 6900 6837 6888 6873 6837 6865 6896 6859 6914 6869 6876 6880 6824 6870 6865 6869 6873 6851 6886 6879 6867 6895 6878 6856 6854 6879 6870 6852 6837 6881 6883 6858 6858 6859 6890 6867 6904 6864 6880 6853 6861 6868 6909 6902 6864

Tree=0
num_leaves=63
num_cat=0
split_feature=3 3 12 5 5 13 3 3 3 13 5 6 5 4 5 4 5 5 6 5 5 13 6 6 12 13 4 5 5 6 6 6 5 0 3 12 5 0 5 5 6 0 0 0 6 5 6 0 6 5 3 5 0 5 5 0 6 0 5 0 5 6
split_gain=1014.53 162.283 40.4395 34.736 22.8236 22.3076 12.8166 12.7053 12.1939 11.4197 9.10374 7.52105 5.57177 5.18189 9.70251 3.90836 16.9435 5.18084 3.71 3.1377 3.24085 3.0634 4.01107 2.9325 2.89546 2.86966 2.85438 4.55756 3.94157 2.55636 2.36398 6.10345 2.33714 2.30066 2.10365 1.95232 1.90199 1.50833 1.60625 1.46878 1.39463 2.66432 1.11977 1.081 0.957726 0.842658 0.725861 1.16488 0.648402 0.629846 0.618795 0.603119 0.590018 0.574576 0.534381 0.519054 0.496045 1.9361 0.4882 0.484784 0.446031 0.404336
threshold=1.5000000000000002 2.5000000000000004 1.0000000180025095e-35 1.0000000180025095e-35 -1.0000000180025095e-35 1.0000000180025095e-35 1.0000000180025095e-35 3.5000000000000004 1.0000000180025095e-35 1.0000000180025095e-35 3.5000000000000004 10.500000000000002 1.5000000000000002 1.0000000180025095e-35 1.5000000000000002 1.0000000180025095e-35 1.0000000180025095e-35 1.5000000000000002 1.5000000000000002 1.0000000180025095e-35 -1.0000000180025095e-35 1.0000000180025095e-35 6.5000000000000009 10.500000000000002 1.0000000180025095e-35 1.0000000180025095e-35 -1.0000000180025095e-35 -1.0000000180025095e-35 -1.4999999999999998 9.5000000000000018 9.5000000000000018 3.5000000000000004 14.500000000000002 3.5000000000000004 5.5000000000000009 1.0000000180025095e-35 -1.0000000180025095e-35 2.5000000000000004 15.500000000000002 7.5000000000000009 9.5000000000000018 2.5000000000000004 2.5000000000000004 3.5000000000000004 9.5000000000000018 -5.4999999999999991 9.5000000000000018 1.5000000000000002 9.5000000000000018 -8.4999999999999982 4.5000000000000009 15.500000000000002 1.5000000000000002 -11.499999999999998 -13.499999999999998 1.5000000000000002 10.500000000000002 3.5000000000000004 -5.4999999999999991 2.5000000000000004 15.500000000000002 4.5000000000000009
decision_type=2 2 2 2 2 2 2 2 2 2 2 2 2 2 2 2 2 2 2 2 2 2 2 2 2 2 2 2 2 2 2 2 2 2 2 2 2 2 2 2 2 2 2 2 2 2 2 2 2 2 2 2 2 2 2 2 2 2 2 2 2 2
left_child=5 3 7 4 -2 6 15 12 13 18 36 21 23 14 24 16 26 -17 -6 20 -10 22 -9 25 56 30 28 53 -1 -12 31 -3 -5 44 42 55 45 39 -39 -18 -24 -42 -4 -38 52 49 47 61 -11 54 -43 -15 -20 -28 -8 -22 57 -7 -55 -26 -31 -29
right_child=1 2 34 32 9 8 10 11 19 48 29 -13 -14 51 -16 17 37 -19 33 -21 35 -23 40 -25 59 -27 27 46 -30 60 -32 -33 -34 -35 -36 -37 43 38 -40 -41 41 50 -44 -45 -46 -47 -48 -49 -50 -51 -52 -53 -54 58 -56 -57 -58 -59 -60 -61 -62 -63
leaf_value=-0.19711984569116306 -0.31128176048857925 -0.32205721201475018 -0.38020401657015079 -0.34031846851178066 -0.27244134288807054 -0.21462698949134829 -0.22107594867650127 -0.35342399165538685 -0.26636197317668653 -0.29291435448320524 -0.25722645227778129 -0.29846345889833692 -0.33869935642309568 -0.21008883302772213 -0.27080458950423636 -0.23055971218407914 -0.23607964963787756 -0.19643237553669479 -0.24116287072861706 -0.26832697655233362 -0.22254162121858148 -0.35323980358210538 -0.31471148593625475 -0.27924556052658106 -0.24192758337516251 -0.32722581686411917 -0.23162879097947883 -0.20844542617484799 -0.22726694949424811 -0.23926201357863264 -0.31173704479399156 -0.27419500722789281 -0.30886973394710648 -0.25612463990015871 -0.3910328938685535 -0.25239946471867281 -0.21535381890770772 -0.24525954562082489 -0.21983141269340156 -0.26055937225907044 -0.34175449184421525 -0.3269332543254756 -0.35991824642744169 -0.22210613384984837 -0.24525954562082489 -0.23839962335034354 -0.21089234882732966 -0.20235684590897757 -0.27743808511660528 -0.2134544514576841 -0.31012647019063483 -0.19528011193588937 -0.22761974549673 -0.21578449498611932 -0.23454966697405299 -0.23498008762888781 -0.20906754191794055 -0.23407012016897366 -0.22859973439251305 -0.22916447375618465 -0.22603668651123432 -0.21527188540986358
leaf_weight=81.533538103103638 20.258333086967468 10.254217982292177 10.004115104675295 12.755246758461 14.255864024162291 54.272324442863464 15.506378412246702 16.756892800331116 11.254629492759703 10.754423737525942 17.757304310798645 15.506378412246702 11.504732370376585 13.505555391311647 11.254629492759703 12.755246758460997 12.255041003227236 86.785698533058167 15.25627553462982 13.005349636077879 11.00452661514282 20.258333086967468 19.257921576499939 12.505143880844114 15.006172657012941 12.505143880844114 19.257921576499939 102.54217982292175 12.505143880844114 12.505143880844118 25.760596394538879 19.007818698883057 11.00452661514282 34.514197111129761 12.00493812561035 15.756481289863585 244.10040855407715 11.004526615142824 14.255864024162291 12.255041003227232 25.260390639305115 10.254217982292177 21.258744597434998 78.282200694084167 46.018929481506348 12.755246758460997 246.60143733024597 84.784875512123108 18.25751006603241 11.004526615142824 11.754835247993467 14.005761146545408 17.006995677947998 19.508024454116825 14.005761146545408 35.264505743980408 14.505966901779173 16.756892800331116 12.00493812561035 14.756069779396055 13.005349636077879 27.511316537857056
leaf_count=326 81 41 40 51 57 217 62 67 45 43 71 62 46 54 45 51 49 347 61 52 44 81 77 50 60 50 77 410 50 50 103 76 44 138 48 63 976 44 57 49 101 41 85 313 184 51 986 339 73 44 47 56 68 78 56 141 58 67 48 59 52 110
internal_value=-0.237634 -0.302674 -0.329215 -0.269 -0.261352 -0.216767 -0.213927 -0.320169 -0.230645 -0.254871 -0.220941 -0.330939 -0.306163 -0.222217 -0.226493 -0.210037 -0.211438 -0.200805 -0.248408 -0.245694 -0.241677 -0.335802 -0.33156 -0.301486 -0.222167 -0.305605 -0.209136 -0.210606 -0.201129 -0.242659 -0.300691 -0.290967 -0.325753 -0.24537 -0.373242 -0.237198 -0.21844 -0.239483 -0.230909 -0.24832 -0.326053 -0.330674 -0.36641 -0.216993 -0.240629 -0.227192 -0.209041 -0.206917 -0.283175 -0.223663 -0.317957 -0.20255 -0.234024 -0.224825 -0.22747 -0.232022 -0.217493 -0.219214 -0.220666 -0.2356 -0.23252 -0.209889
internal_weight=1868.77 453.937 253.854 200.082 176.323 1414.83 1174.48 210.587 240.349 156.064 418.922 119.049 91.5377 154.063 126.552 755.561 656.02 99.5409 127.052 86.2855 73.2801 103.543 83.2843 80.0329 115.297 67.5278 606.249 512.211 94.0387 43.2678 55.0226 29.262 23.7598 112.796 43.2678 62.0255 375.655 49.7705 25.2604 24.5101 66.5274 47.2694 31.2629 322.383 78.2822 53.2719 461.44 214.838 29.0119 40.5167 22.0091 27.5113 32.2633 50.7709 29.5121 46.269 85.5352 71.0292 31.513 29.7622 25.5105 130.053
internal_count=7472 1815 1015 800 705 5657 4696 842 961 624 1675 476 366 616 506 3021 2623 398 508 345 293 414 333 320 461 270 2424 2048 376 173 220 117 95 451 173 248 1502 199 101 98 266 189 125 1289 313 213 1845 859 116 162 88 110 129 203 118 185 342 284 126 119 102 520
is_linear=0
shrinkage=1


Tree=1
num_leaves=63
num_cat=0
split_feature=3 6 5 3 3 4 4 6 5 5 3 0 6 3 5 3 13 6 13 6 6 13 6 0 13 6 13 4 5 6 6 5 6 3 5 4 6 5 4 5 6 5 5 4 5 6 5 5 5 3 3 6 6 6 6 13 6 0 6 0 3 6
split_gain=155.431 16.2513 18.7684 10.2217 10.169 30.5658 25.1085 8.20453 7.99195 7.30563 7.20193 7.0026 10.2298 6.80715 8.87559 6.43709 6.33868 5.27924 3.95368 2.4831 2.33983 2.2047 2.50563 2.09213 1.9531 1.77442 1.62836 1.35297 1.4573 1.28581 1.55902 1.10482 1.02374 0.979817 0.915517 3.33429 0.89721 0.86648 0.847722 1.27926 0.80922 4.17286 1.28976 1.18047 1.38552 0.846546 0.784756 0.758008 0.705229 0.702596 0.696529 0.588399 0.95955 0.81117 0.572997 0.541064 0.515871 0.511429 0.975915 0.802598 0.464818 0.422905
threshold=1.5000000000000002 8.5000000000000018 6.5000000000000009 5.5000000000000009 1.0000000180025095e-35 1.5000000000000002 -1.0000000180025095e-35 4.5000000000000009 20.500000000000004 1.0000000180025095e-35 2.5000000000000004 2.5000000000000004 10.500000000000002 2.5000000000000004 -1.0000000180025095e-35 2.5000000000000004 1.0000000180025095e-35 2.5000000000000004 1.0000000180025095e-35 9.5000000000000018 7.5000000000000009 1.0000000180025095e-35 10.500000000000002 3.5000000000000004 1.0000000180025095e-35 10.500000000000002 1.0000000180025095e-35 13.500000000000002 4.5000000000000009 9.5000000000000018 8.5000000000000018 -1.0000000180025095e-35 7.5000000000000009 6.5000000000000009 -3.4999999999999996 -2.4999999999999996 9.5000000000000018 -1.0000000180025095e-35 -1.0000000180025095e-35 -11.499999999999998 8.5000000000000018 17.500000000000004 12.500000000000002 5.5000000000000009 3.5000000000000004 9.5000000000000018 -17.499999999999996 -10.499999999999998 -3.4999999999999996 2.5000000000000004 3.5000000000000004 7.5000000000000009 1.5000000000000002 1.0000000180025095e-35 4.5000000000000009 1.0000000180025095e-35 9.5000000000000018 3.5000000000000004 9.5000000000000018 2.5000000000000004 3.5000000000000004 1.0000000180025095e-35
decision_type=2 2 2 2 2 2 2 2 2 2 2 2 2 2 2 2 2 2 2 2 2 2 2 2 2 2 2 2 2 2 2 2 2 2 2 2 2 2 2 2 2 2 2 2 2 2 2 2 2 2 2 2 2 2 2 2 2 2 2 2 2 2
left_child=4 2 7 9 24 6 -6 17 21 11 -11 19 13 16 -15 32 56 61 49 -3 -17 46 23 29 34 27 33 28 37 30 -23 -21 -9 -5 38 -36 -16 -26 -1 -40 41 51 43 44 45 -42 -8 -48 -49 -14 55 52 53 -37 -54 -33 -13 58 59 -39 -12 -2
right_child=1 3 -4 26 5 -7 8 15 -10 10 60 12 18 14 36 20 -18 -19 -20 31 -22 22 -24 -25 25 -27 -28 -29 -30 -31 -32 50 -34 -35 35 40 -38 57 39 -41 42 -43 -44 -45 -46 -47 47 48 -50 -51 -52 -53 54 -55 -56 -57 -58 -59 -60 -61 -62 -63
leaf_value=-2.7022133890557982 -2.6147256180763931 -2.6719739434412104 -2.5015137728273809 -2.6736753796845703 -2.5508316829139819 -2.541427380768865 -2.7060026683084093 -2.6413480910607312 -2.6269804072279137 -2.6239016178351671 -2.6830143741759014 -2.6521238539353442 -2.6493192033241435 -2.6555405592370507 -2.5922106123524959 -2.5373385537492488 -2.5741580401954969 -2.683992599458136 -2.6936875107374232 -2.6619825306078626 -2.5842999346657209 -2.6637792709221704 -2.6977925632610851 -2.6321117228824913 -2.6923911783615297 -2.7004409842440928 -2.6542790065102668 -2.6980451818779256 -2.6511442391285613 -2.657206760951671 -2.7060026683084093 -2.6458588755198713 -2.607906068346415 -2.7060026683084093 -2.6495768554377084 -2.6881228839831253 -2.5673967772153476 -2.6776609358162764 -2.6724158749329923 -2.7004409842440928 -2.7000801116139654 -2.6385370224847451 -2.7035278519544312 -2.6662152361559919 -2.6646237388698952 -2.6898695790897071 -2.6637792709221704 -2.6991969233349695 -2.6832874532638686 -2.6274350807669271 -2.6210832235651904 -2.6783640704010048 -2.7060026683084093 -2.6669659424230185 -2.6907898266030732 -2.6264278040035745 -2.6330590426956442 -2.6610255710926332 -2.6674029206978553 -2.7060026683084093 -2.7060026683084093 -2.6321117228824913
leaf_weight=26.390243321657181 8.2167424261569995 7.3467344045639029 4.1567049920558921 4.6400427818298322 3.8667023181915274 4.2533725500106803 3.9633698761463156 3.8667023181915301 6.9600641727447501 6.0900561511516562 4.3500401079654676 4.6400427818298384 7.056731730699541 3.9633698761463192 4.8333778977394113 4.4467076659202558 4.9300454556941977 4.5433752238750449 4.0600374341011038 4.5433752238750484 6.5733939409255981 4.7367103397846293 6.0900561511516562 4.7367103397846213 7.3467344045639029 8.9900828897953016 4.8333778977394095 6.2833912670612326 6.3800588250160208 10.24676114320755 4.0600374341011047 12.470114976167684 5.6067183613777161 4.7367103397846222 5.3167156875133506 39.150360971689224 14.790136367082596 7.0567317306995427 7.4434019625186947 8.9900828897953016 25.32690018415451 4.4467076659202567 20.203519612550735 5.0267130136489859 4.8333778977394095 102.27427631616592 4.7367103397846213 7.3467344045639029 134.27123799920082 7.6367370784282684 6.476726382970809 12.663450092077253 11.696774512529375 5.1233805716037741 13.146787881851195 5.0267130136489859 15.08013904094696 6.6700614988803855 12.95345276594162 3.8667023181915283 4.4467076659202576 6.0900561511516562
leaf_count=273 85 76 43 48 40 44 41 40 72 63 45 48 73 41 50 46 51 47 42 47 68 49 63 49 76 93 50 65 66 106 42 129 58 49 55 405 153 73 77 93 262 46 209 52 50 1058 49 76 1389 79 67 131 121 53 136 52 156 69 134 40 46 63
internal_value=-2.67001 -2.62906 -2.60256 -2.6378 -2.68314 -2.674 -2.67695 -2.61323 -2.67955 -2.63296 -2.6657 -2.62822 -2.61868 -2.60649 -2.58729 -2.59133 -2.62487 -2.63704 -2.65001 -2.64605 -2.56535 -2.68158 -2.66918 -2.66185 -2.68823 -2.67997 -2.67785 -2.67633 -2.67325 -2.66924 -2.68327 -2.63938 -2.62156 -2.69001 -2.68991 -2.68875 -2.57351 -2.67697 -2.69666 -2.68775 -2.6896 -2.68571 -2.69173 -2.69 -2.6909 -2.6919 -2.68405 -2.68345 -2.68411 -2.63795 -2.63509 -2.68827 -2.69009 -2.68567 -2.69795 -2.64028 -2.63754 -2.67327 -2.67669 -2.68769 -2.69463 -2.62213
internal_weight=722.3 175.452 43.5004 131.951 546.848 195.268 191.015 39.3437 187.148 117.741 14.8868 102.854 66.9906 48.2371 23.5869 20.4935 24.6502 18.8502 18.7535 35.8637 11.0201 180.188 29.8703 23.7802 351.58 59.5472 14.2101 50.5571 44.2737 19.0435 8.79675 28.5169 9.47342 9.37675 292.033 249.209 19.6235 37.8937 42.8237 16.4335 243.892 86.2275 157.665 137.461 132.435 127.601 150.318 146.355 141.618 14.6935 23.9736 81.7808 69.1173 44.2737 24.8436 17.4968 19.7202 30.5469 23.8769 10.9234 8.79675 14.3068
internal_count=7472 1815 450 1365 5657 2020 1976 407 1936 1218 154 1064 693 499 244 212 255 195 194 371 114 1864 309 246 3637 616 147 523 458 197 91 295 98 97 3021 2578 203 392 443 170 2523 892 1631 1422 1370 1320 1555 1514 1465 152 248 846 715 458 257 181 204 316 247 113 91 148
is_linear=0
shrinkage=1


Tree=2
num_leaves=63
num_cat=0
split_feature=3 3 12 5 5 5 3 5 13 12 3 13 12 5 5 3 3 5 6 6 4 5 4 5 4 5 6 5 4 5 5 6 6 13 3 6 6 5 6 3 3 5 3 6 6 6 5 5 5 6 6 6 6 5 5 6 6 6 12 6 6 6
split_gain=897.858 101.73 69.3944 32.7523 30.1938 25.0975 21.016 16.3105 14.6124 14.1097 13.8521 9.17763 6.97157 5.69405 5.59112 5.50105 5.3479 7.33865 4.58077 10.6109 3.74124 5.49072 3.55611 12.325 2.608 4.10113 2.57019 2.30884 1.77797 4.36953 1.75928 1.55045 1.38144 1.25222 1.23495 1.2075 1.12885 1.81098 1.07887 1.06812 1.05963 0.865005 0.648474 0.588792 0.572259 0.519385 0.445578 0.422863 0.733568 0.415707 0.382722 0.352122 0.34779 0.333621 0.39915 0.284786 0.24121 0.233284 0.226076 0.222175 0.200674 0.145116
threshold=2.5000000000000004 1.5000000000000002 1.0000000180025095e-35 1.0000000180025095e-35 1.0000000180025095e-35 -1.0000000180025095e-35 4.5000000000000009 -6.4999999999999991 1.0000000180025095e-35 1.0000000180025095e-35 5.5000000000000009 1.0000000180025095e-35 1.0000000180025095e-35 8.5000000000000018 14.500000000000002 1.0000000180025095e-35 1.0000000180025095e-35 1.0000000180025095e-35 3.5000000000000004 9.5000000000000018 1.0000000180025095e-35 2.5000000000000004 1.0000000180025095e-35 1.0000000180025095e-35 -1.4999999999999998 -4.4999999999999991 10.500000000000002 -1.0000000180025095e-35 -1.0000000180025095e-35 -2.4999999999999996 14.500000000000002 9.5000000000000018 9.5000000000000018 1.0000000180025095e-35 5.5000000000000009 1.5000000000000002 9.5000000000000018 9.5000000000000018 8.5000000000000018 3.5000000000000004 3.5000000000000004 -10.499999999999998 1.0000000180025095e-35 9.5000000000000018 9.5000000000000018 5.5000000000000009 -2.4999999999999996 -5.4999999999999991 -8.4999999999999982 5.5000000000000009 6.5000000000000009 9.5000000000000018 10.500000000000002 -8.4999999999999982 -13.499999999999998 1.5000000000000002 10.500000000000002 7.5000000000000009 1.0000000180025095e-35 9.5000000000000018 8.5000000000000018 1.0000000180025095e-35
decision_type=2 2 2 2 2 2 2 2 2 2 2 2 2 2 2 2 2 2 2 2 2 2 2 2 2 2 2 2 2 2 2 2 2 2 2 2 2 2 2 2 2 2 2 2 2 2 2 2 2 2 2 2 2 2 2 2 2 2 2 2 2 2
left_child=1 8 3 6 5 41 7 -2 16 20 11 -4 35 -5 -6 44 22 27 -9 39 21 28 23 24 46 53 40 47 -10 -30 32 49 -25 34 -8 -7 37 -19 50 -20 -21 -3 -31 45 -11 55 -1 48 -18 61 -37 -44 59 54 -26 -27 -33 -51 -45 -40 -59 -29
right_child=2 4 10 13 14 12 33 18 9 15 -12 -13 -14 -15 -16 -17 17 36 19 26 -22 -23 -24 30 25 43 -28 31 29 42 -32 56 -34 -35 -36 38 -38 -39 52 -41 -42 -43 51 58 -46 -47 -48 -49 -50 57 -52 -53 -54 -55 -56 -57 -58 60 -60 -61 -62 -63
leaf_value=-1.9893477769923211 -1.8272423892678897 -1.8868740140379483 -1.8359367634465935 -1.7707370826896593 -1.8393208299218671 -1.9318186469126732 -1.8465055619650137 -1.8604499619553743 -1.9893477769923211 -1.9370207491007265 -1.7274703827755908 -1.7723445142654142 -1.9069350152512383 -1.8241187638565883 -1.896189810670164 -1.9108238207054455 -1.9592424907006409 -1.9225500648442855 -1.9332937528121514 -1.8835684087813558 -1.9893477769923211 -1.9339565537737413 -1.9879745942391636 -1.9266315942005738 -1.9620214402044884 -1.979703187537792 -1.9039529745303438 -1.9775945138577693 -1.9346951034166555 -1.973214146416479 -1.960750447795752 -1.9692237305206612 -1.9525623236240848 -1.8589266241413012 -1.8266910103980787 -1.9518410402247075 -1.9566495962205555 -1.9551898560075303 -1.9508599786995988 -1.9112725290270847 -1.8658177613760909 -1.8627135333413889 -1.9698289650010119 -1.9759181670324888 -1.9525623236240848 -1.9835198852603189 -1.9766378529049571 -1.9518410402247075 -1.9769267148160334 -1.9893477769923211 -1.9652363033559981 -1.9595864200946815 -1.9542139154079647 -1.9670405632879677 -1.9481004761804981 -1.9733907920067253 -1.9745767841340331 -1.9755116570997475 -1.9824297170460343 -1.9434305717340776 -1.9826828168001667 -1.9722688164999256
leaf_weight=55.806968733668327 10.795446410775183 7.3189467191696167 10.429499074816707 7.3189467191696194 9.3316570669412631 10.429499074816702 16.10168278217316 9.6976044028997404 8.7827360630035383 8.5997623950243014 8.7827360630035383 12.442209422588348 11.527341082692145 15.735735446214674 8.0508413910865766 15.918709114193915 21.590892821550369 8.2338150590658206 14.271946102380753 22.688734829425812 16.467630118131638 13.540051430463789 72.823519855737686 11.161393746733665 10.978420078754427 62.211047112941742 11.710314750671385 34.033102244138718 10.063551738858221 49.585864022374153 15.735735446214674 94.414412677288055 9.5146307349205017 8.0508413910865766 15.369788110256193 9.3316570669412613 21.407919153571129 8.7827360630035383 12.991130426526068 8.9657097309827805 13.357077762484549 7.5019203871488553 15.369788110256193 171.26335322856903 19.029261469841003 77.214887887239456 7.8678677231073371 9.3316570669412595 8.0508413910865801 8.5997623950242978 12.442209422588348 18.480340465903282 12.808156758546827 8.9657097309827787 9.6976044028997439 25.067392513155937 27.080102860927582 14.454919770359991 14.454919770359991 44.645574986934662 30.007681548595428 20.493050813674927
leaf_count=305 59 40 57 40 51 57 88 53 48 47 48 68 63 86 44 87 118 45 78 124 90 74 398 61 60 340 64 186 55 271 86 516 52 44 84 51 117 48 71 49 73 41 84 936 104 422 43 51 44 47 68 101 70 49 53 137 148 79 79 244 164 112
internal_value=-1.95047 -1.96654 -1.84827 -1.86213 -1.92752 -1.93586 -1.8718 -1.88496 -1.97205 -1.95892 -1.78085 -1.80134 -1.9438 -1.80717 -1.86566 -1.93424 -1.97474 -1.96944 -1.89268 -1.89709 -1.96705 -1.96388 -1.97768 -1.97612 -1.97841 -1.97684 -1.8836 -1.97237 -1.96784 -1.96582 -1.94815 -1.97429 -1.93856 -1.84133 -1.83683 -1.94794 -1.94901 -1.9394 -1.94977 -1.9248 -1.87699 -1.87464 -1.96957 -1.97835 -1.94772 -1.98053 -1.98778 -1.96112 -1.96405 -1.97866 -1.9595 -1.96424 -1.94676 -1.95899 -1.95549 -1.97789 -1.97042 -1.98181 -1.97642 -1.94511 -1.98035 -1.97559
internal_weight=1367.18 1181.46 185.718 154.064 146.379 128.996 131.009 91.4868 1035.08 175.838 31.6544 22.8717 114.176 23.0547 17.3825 43.5477 859.244 306.481 80.6914 70.9938 132.29 115.822 552.763 479.94 443.528 379.853 47.7561 268.056 102.282 93.4995 36.4118 229.083 20.676 39.5223 31.4715 102.648 38.4245 17.0166 92.2187 23.2377 36.0458 14.8209 83.436 350.212 27.629 164.493 63.6748 38.9734 29.6417 107.589 21.7739 33.8501 70.4449 29.6417 20.676 87.2784 121.495 53.0624 185.718 57.6367 44.4626 54.5262
internal_count=7472 6457 1015 842 800 705 716 500 5657 961 173 125 624 126 95 238 4696 1675 441 388 723 633 3021 2623 2424 2076 261 1465 559 511 199 1252 113 216 172 561 210 93 504 127 197 81 456 1914 151 899 348 213 162 588 119 185 385 162 113 477 664 290 1015 315 243 298
is_linear=0
shrinkage=1


Tree=3
num_leaves=63
num_cat=0
split_feature=3 3 12 13 13 3 6 13 3 3 6 4 6 4 6 12 6 12 4 12 3 0 0 6 12 6 12 0 0 3 6 6 6 0 0 4 6 6 0 0 0 0 3 0 0 6 0 3 6 0 6 6 6 4 6 6 0 6 3 0 6 6
split_gain=809.756 120.558 23.1344 19.6847 17.2016 12.4875 9.28238 8.2001 7.59049 6.7091 5.25934 4.64756 4.31666 3.96796 3.8593 4.46697 3.35045 3.33948 3.16474 2.63834 2.15046 2.12017 3.71876 1.82585 1.59222 1.55713 1.51356 1.36055 1.27254 1.13294 1.04 1.06136 1.8923 1.09734 0.909259 0.864843 0.846533 0.763285 0.705545 0.697991 0.673886 0.613632 0.553991 0.552229 0.42076 0.419054 0.626965 0.336651 0.29634 0.826071 0.283804 0.257924 0.239883 0.193001 0.1781 1.14639 1.35547 0.958241 0.157082 0.155634 0.283244 0.144364
threshold=1.5000000000000002 2.5000000000000004 1.0000000180025095e-35 1.0000000180025095e-35 1.0000000180025095e-35 1.0000000180025095e-35 1.5000000000000002 1.0000000180025095e-35 5.5000000000000009 1.0000000180025095e-35 9.5000000000000018 1.0000000180025095e-35 10.500000000000002 1.0000000180025095e-35 1.5000000000000002 1.0000000180025095e-35 8.5000000000000018 1.0000000180025095e-35 -1.4999999999999998 1.0000000180025095e-35 3.5000000000000004 3.5000000000000004 2.5000000000000004 7.5000000000000009 1.0000000180025095e-35 9.5000000000000018 1.0000000180025095e-35 3.5000000000000004 3.5000000000000004 4.5000000000000009 10.500000000000002 9.5000000000000018 8.5000000000000018 2.5000000000000004 2.5000000000000004 -1.0000000180025095e-35 10.500000000000002 9.5000000000000018 2.5000000000000004 3.5000000000000004 3.5000000000000004 3.5000000000000004 6.5000000000000009 3.5000000000000004 3.5000000000000004 10.500000000000002 3.5000000000000004 3.5000000000000004 9.5000000000000018 2.5000000000000004 9.5000000000000018 1.0000000180025095e-35 10.500000000000002 17.500000000000004 3.5000000000000004 6.5000000000000009 1.5000000000000002 1.0000000180025095e-35 3.5000000000000004 2.5000000000000004 8.5000000000000018 9.5000000000000018
decision_type=2 2 2 2 2 2 2 2 2 2 2 2 2 2 2 2 2 2 2 2 2 2 2 2 2 2 2 2 2 2 2 2 2 2 2 2 2 2 2 2 2 2 2 2 2 2 2 2 2 2 2 2 2 2 2 2 2 2 2 2 2 2
left_child=3 4 6 5 14 13 -3 8 10 11 16 19 34 18 -2 23 20 41 38 35 -8 22 -6 -16 48 -9 36 -14 -28 43 31 32 -25 -33 47 -5 54 -21 -1 -26 -38 50 -10 -4 51 46 59 -12 49 -20 -11 -15 -40 -13 57 -56 -57 -7 -36 60 -37 -58
right_child=1 2 29 9 21 26 7 25 42 17 12 53 27 44 15 -17 -18 -19 24 37 -22 -23 -24 30 39 -27 28 -29 -30 -31 -32 33 -34 -35 58 45 40 -39 52 -41 -42 -43 -44 -45 -46 -47 -48 -49 -50 -51 -52 -53 -54 -55 55 56 61 -59 -60 -61 -62 -63
leaf_value=0.039153974224840113 -0.041090266515791236 -0.11047965137973018 -0.095301392120667183 0.027092206947897018 -0.063421323071010408 0.018725061651068117 -0.043940312667153494 -0.09913946512468029 -0.081679890366997243 0.0087510887754936647 -0.072632843294408 0.028562862378494785 -0.034300322734265219 0.032777292532028067 0.00045399478622259575 -0.046951691480246367 -0.031221515501778707 -0.020736515121543387 0.024368267398986201 -0.01450704905583001 -0.069296592035893681 -0.073966884842345787 -0.027800016739102859 -0.026798538934848778 0.021429325566160493 -0.079834235673771181 0.016011655276791811 -0.059079349236886014 -0.0066641017023422238 -0.1172340592664579 -0.0054846613395959165 -0.030625297882666588 -0.002113891218971702 -0.017084774632395126 -0.06320080195470322 0.0050687857938350013 0.015880271595043658 0.0021206491619268925 0.032129896066390128 0.0068244313530989283 0.0029292343168745298 -0.0060222324123078239 -0.096786883313552952 -0.11001123407224454 0.0302574502209393 0.020396009418017363 0.0014547641267704504 -0.083058574114231148 0.023447487511303284 0.031633061862570554 0.00072117759928127688 0.03986097739971476 0.023563885365616176 0.037214849172041535 0.029463650176450334 0.0025777686859288587 0.019758462623942086 0.0061083333904712982 -0.069932061589972866 0.016083697590296757 0.014618123427801201 0.017128945284075391
leaf_weight=40.034319579601288 17.82325553894043 13.581874310970305 14.622447282075882 10.187177568674086 17.361834019422531 53.831204101443291 17.154364168643951 16.054298520088196 13.52117955684662 22.412156075239182 13.765821665525438 15.062428042292597 10.941360712051392 16.827907860279083 18.938726872205734 11.089764833450316 22.120224446058273 22.857466250658035 191.58658526837826 10.553154900670053 16.313928991556168 11.093764722347258 12.676458060741426 12.24353316426277 14.645948097109793 29.895727068185806 11.543112710118294 11.220882475376129 13.33439128100872 21.537081837654114 18.6887226998806 23.862691909074783 21.219330757856369 40.117652267217636 16.356802523136139 13.52841390669346 21.080695331096649 19.947608068585396 31.443252757191658 18.532273456454277 19.185462340712547 18.602654188871384 11.010144442319868 11.319424390792847 21.870804756879807 11.659667223691939 15.946100398898123 17.697311490774155 273.90510241687298 49.173327833414078 21.616807848215103 54.364991888403893 11.043566972017286 11.267293632030485 20.048526450991631 15.221406310796736 76.405936866998672 20.889491379261017 18.435762494802475 21.181580364704132 18.227966904640198 164.74165539443493
leaf_count=167 68 49 51 42 66 220 64 58 49 90 51 62 41 70 74 42 83 89 788 42 59 42 48 48 60 109 47 42 54 74 73 93 83 156 60 55 86 80 131 76 78 74 40 40 91 48 64 64 1124 203 86 226 46 47 82 62 311 85 67 86 74 670
internal_value=0.000451972 -0.0553997 -0.0770044 0.0200081 -0.0263763 0.0227156 -0.0703941 -0.0678558 -0.0627511 0.00676747 -0.0583716 0.0132247 -0.0659481 0.0266857 -0.0191246 -0.016446 -0.0463206 -0.00437826 0.0252629 0.00908936 -0.0563001 -0.0552875 -0.0483888 -0.0139414 0.0238879 -0.0865792 0.0158161 -0.0468461 0.0038574 -0.108757 -0.016289 -0.0183611 -0.0111456 -0.022135 -0.0723376 0.013366 0.0165762 -0.00363247 0.0343912 0.0132715 0.00970954 0.0015917 -0.0884602 -0.10172 0.0363232 0.0116299 0.0101461 -0.0784971 0.0245723 0.025852 0.00480866 0.0381866 0.0299033 0.0322653 0.0173637 0.0179491 0.0170487 0.0151978 -0.0667675 0.0127642 0.01055 0.0179621
internal_weight=1853.42 480.664 275.549 1372.76 205.116 1139.71 228.07 214.488 168.538 233.05 144.006 147.561 88.4179 723.428 163.984 146.16 55.5885 85.4891 630.364 121.232 33.4683 41.1321 30.0383 135.071 547.843 45.95 416.282 22.1622 24.8775 47.479 116.132 97.4432 33.4629 63.9803 66.2557 90.7309 391.404 30.5008 82.5211 33.1782 40.2662 62.6316 24.5313 25.9419 93.0637 80.5437 68.8841 31.4631 514.665 240.76 44.029 71.1929 42.4868 26.3297 351.138 276.418 256.369 74.7207 34.7926 52.938 31.7564 241.148
internal_count=7410 1794 1001 5616 793 4677 836 787 620 939 531 600 325 2982 637 569 206 339 2595 491 123 156 114 527 2251 167 1695 83 101 165 453 380 131 249 242 369 1594 122 344 136 164 250 89 91 387 327 279 115 2115 991 176 296 177 109 1430 1125 1043 305 127 215 129 981
is_linear=0
shrinkage=0.05


Tree=4
num_leaves=63
num_cat=0
split_feature=3 6 5 3 4 4 3 3 5 0 0 6 5 6 3 6 6 6 12 0 6 6 6 0 0 3 3 12 0 6 5 5 5 4 4 5 5 6 3 0 6 0 5 0 6 6 5 6 5 6 5 5 4 0 6 4 5 6 6 6 6 6
split_gain=120.103 18.0027 15.2096 8.48293 23.3119 17.5765 6.30558 3.14495 2.95858 2.87464 4.2578 5.15359 3.62369 5.34859 3.74906 2.97082 2.8413 2.81384 2.5492 2.50532 2.25655 2.03001 2.89111 1.88997 1.84796 2.77341 1.77668 1.72452 1.53053 1.25902 1.38339 1.13085 2.72391 3.92781 0.89297 2.97305 0.962194 0.874904 0.840865 0.811378 0.770937 0.651282 1.05544 0.86331 1.3659 1.28814 1.04126 0.644747 0.6162 1.56663 0.929099 0.784651 1.48346 0.750335 0.598197 0.567896 1.91468 0.459342 0.591673 0.58141 0.420848 0.456151
threshold=1.5000000000000002 8.5000000000000018 6.5000000000000009 1.0000000180025095e-35 1.5000000000000002 -1.0000000180025095e-35 5.5000000000000009 2.5000000000000004 20.500000000000004 2.5000000000000004 1.5000000000000002 9.5000000000000018 1.0000000180025095e-35 10.500000000000002 2.5000000000000004 9.5000000000000018 9.5000000000000018 1.5000000000000002 1.0000000180025095e-35 2.5000000000000004 5.5000000000000009 1.0000000180025095e-35 4.5000000000000009 1.5000000000000002 3.5000000000000004 2.5000000000000004 2.5000000000000004 1.0000000180025095e-35 3.5000000000000004 9.5000000000000018 1.0000000180025095e-35 27.500000000000004 20.500000000000004 15.500000000000002 -13.499999999999998 -16.499999999999996 -16.499999999999996 10.500000000000002 3.5000000000000004 3.5000000000000004 7.5000000000000009 3.5000000000000004 -1.4999999999999998 1.5000000000000002 6.5000000000000009 9.5000000000000018 6.5000000000000009 8.5000000000000018 1.5000000000000002 7.5000000000000009 6.5000000000000009 -3.4999999999999996 -2.4999999999999996 2.5000000000000004 10.500000000000002 -1.0000000180025095e-35 -1.0000000180025095e-35 2.5000000000000004 1.0000000180025095e-35 4.5000000000000009 1.5000000000000002 3.5000000000000004
decision_type=2 2 2 2 2 2 2 2 2 2 2 2 2 2 2 2 2 2 2 2 2 2 2 2 2 2 2 2 2 2 2 2 2 2 2 2 2 2 2 2 2 2 2 2 2 2 2 2 2 2 2 2 2 2 2 2 2 2 2 2 2 2
left_child=3 2 7 27 5 -5 9 21 18 10 -3 -12 13 14 39 -16 -14 -9 41 -8 -19 -2 -23 -22 25 -15 -13 31 -20 -29 37 32 33 34 35 -1 -36 -31 -17 -11 -24 43 -43 44 57 47 -47 -45 51 50 -50 53 -53 -38 -44 -54 -57 58 -7 -59 -58 -62
right_child=1 6 -4 4 -6 8 19 17 -10 12 11 26 16 24 15 38 -18 20 28 -21 23 22 40 -25 -26 -27 -28 29 -30 30 -32 -33 -34 -35 36 -37 48 -39 -40 -41 -42 42 54 45 -46 46 -48 -49 49 -51 -52 52 55 -55 -56 56 60 59 -60 -61 61 -63
leaf_value=-0.02720359687630472 0.061738301716529699 0.050086713268230235 0.1389715953102765 0.09351228296036003 0.10786709718923769 -0.013789143588679512 -0.028694834087921492 0.030813445413433567 0.023007452947284842 0.023571271150056711 -0.028667252711140852 0.03381357833500457 -0.024412237239053839 0.0010220597406670289 0.032454341470987733 0.058354936729918087 0.02696510709621032 0.093797966046450215 -0.00372820451148067 0.013714946536616644 0.035063076961004316 -0.0051444640877576324 0.024802089536829088 0.078238928591226442 -4.0692209321482025e-05 0.057056993801927004 0.0080139196847896568 -0.020755248381946787 0.027135161469877211 0.0036351976412187167 0.027440086581566561 -0.035722610721323524 0.011943127143459034 0.020297637781350502 0.00030910099380856911 0.029309411001446236 -0.035687921592254861 -0.020009952531410979 0.07960160321312551 0.041404848329095835 0.052714653802302419 0.011834217260602863 -0.0066931135262848739 -0.017624156123681282 0.0084793369159759172 -0.011637382447387113 -0.035786958595741269 -0.035745277159070797 -0.024065555366014315 -0.035762581056112824 0.0027178685555388437 0.010191105963099297 -0.035722876725956754 -0.019854697601051782 -0.022724893378666278 0.015910002175805307 -0.014197137877882847 -0.03574967528322269 0.0036908523511288561 -0.012175708848564178 -0.035679846140288088 -0.020159790770823686
leaf_weight=5.8985141068696976 5.624988034367564 8.1308495700359327 5.4150860458612433 4.243480257689952 4.5136279463767996 20.493751615285877 6.8879819810390455 5.229216247797015 6.7844009250402442 12.592124685645105 6.9277936965227118 12.186473317444326 4.3153988942503911 4.0640166103839874 7.289486542344096 8.4591547548770922 7.1489546075463295 7.3130759671330479 10.917283847928049 7.043099157512188 4.9065494164824468 4.8769176229834548 4.1166657879948598 5.2431129664182663 9.752004012465477 4.8356535583734512 14.74938879907131 10.005116924643518 6.3553544655442229 10.153186507523065 3.956794247031211 9.4446177482604963 7.3345433324575415 6.2486771047115317 5.5417859777808181 3.8438601046800596 14.232374742627146 6.3644713535904875 10.359906606376169 12.92429582774639 6.1986210495233536 6.3006768003106108 24.066249623894695 8.2685246616601944 9.039935886859892 51.825766429305077 4.8842002525925627 12.079808138310909 8.5846254825592023 20.499893859028816 5.1988486647605887 4.3475642874836913 5.1486766040325156 15.777887873351572 7.6740212365984908 3.8717036992311469 30.190648019313812 4.4426007643342 6.3382704928517333 6.3596943616867065 4.8843165263533583 154.22010047733784
leaf_count=64 54 79 46 40 42 217 68 49 67 123 70 121 42 41 68 77 70 69 114 69 44 49 41 48 97 47 141 106 66 107 42 101 77 67 58 41 154 68 94 127 60 66 252 87 95 547 51 128 92 216 55 45 55 170 81 41 322 47 67 67 53 1648
internal_value=-0.000605668 0.0338961 0.0599484 -0.0127446 -0.00443811 -0.00710499 0.0246375 0.0501132 -0.00940261 0.0282281 0.0175955 0.00979421 0.0336906 0.0379426 0.0462337 0.0595542 0.00762571 0.0629887 -0.0106307 -0.00725384 0.0726235 0.0360783 0.0265775 0.0573669 0.0149941 0.0314688 0.0196863 -0.0175587 0.00762777 -0.00621819 0.000885535 -0.018691 -0.0181473 -0.0189123 -0.0197804 -0.00490635 -0.0203121 -0.00547559 0.0700512 0.0326041 0.0415752 -0.0125802 -0.00685855 -0.0143392 -0.00897283 -0.0175897 -0.0137173 -0.0283818 -0.0207402 -0.0269983 -0.0139634 -0.0198181 -0.0187008 -0.0273636 -0.0105692 -0.0193342 -0.0188973 -0.0131649 -0.00966001 -0.0218708 -0.0196093 -0.0206362
internal_weight=716.927 186.591 48.9242 530.336 194.588 190.074 137.667 43.5091 185.831 123.736 41.9945 33.8637 81.741 70.2766 51.625 26.1085 11.4644 22.692 179.046 13.9311 17.4627 20.8172 15.1922 10.1497 18.6517 8.89967 26.9359 335.748 17.2726 30.4796 20.4745 305.269 295.824 288.489 282.241 9.74237 272.498 16.5177 18.8191 25.5164 10.3153 161.774 38.0409 123.733 46.6743 77.0583 56.71 20.3483 266.957 34.2834 13.7835 232.673 202.663 30.0103 31.7403 198.315 193.167 37.6343 26.832 10.8023 189.295 159.104
internal_count=7410 1794 460 5616 2034 1992 1334 414 1952 1197 411 332 786 674 489 239 112 210 1885 137 161 204 150 92 185 88 262 3582 180 323 217 3259 3158 3081 3014 105 2909 175 171 250 101 1705 399 1306 493 813 598 215 2851 363 147 2488 2164 324 333 2119 2064 398 284 114 2023 1701
is_linear=0
shrinkage=0.05


Tree=5
num_leaves=63
num_cat=0
split_feature=3 3 5 5 5 3 5 13 5 13 0 6 4 5 6 4 5 5 5 13 4 5 5 5 5 5 5 6 6 6 0 4 5 0 6 6 0 5 0 6 0 6 0 6 5 6 5 5 0 3 6 6 6 6 5 0 6 6 6 0 0 0
split_gain=707.814 78.7361 31.4329 16.8427 20.9444 16.5891 13.8955 12.8204 11.9935 9.30108 8.21006 11.0943 7.01753 6.66188 6.64 6.26521 15.8488 6.02062 12.4559 5.43925 4.39452 8.15392 3.82008 3.61927 3.46063 3.74913 4.38323 4.00571 2.74925 7.7214 2.81783 2.69086 7.07382 1.8401 3.89895 3.19329 1.70079 1.46346 1.419 1.25963 1.16271 1.15552 1.80727 1.07379 2.10882 0.941335 1.09531 0.92577 0.917494 0.870958 0.648768 1.55258 0.898086 0.646115 0.532622 0.495829 0.448387 0.347512 0.32967 0.327818 0.318623 0.26
threshold=2.5000000000000004 1.5000000000000002 1.0000000180025095e-35 -1.0000000180025095e-35 1.0000000180025095e-35 4.5000000000000009 -1.0000000180025095e-35 1.0000000180025095e-35 14.500000000000002 1.0000000180025095e-35 2.5000000000000004 9.5000000000000018 1.0000000180025095e-35 14.500000000000002 8.5000000000000018 1.0000000180025095e-35 1.0000000180025095e-35 1.5000000000000002 21.500000000000004 1.0000000180025095e-35 -1.0000000180025095e-35 -1.4999999999999998 -9.4999999999999982 -12.499999999999998 14.500000000000002 5.5000000000000009 9.5000000000000018 3.5000000000000004 3.5000000000000004 9.5000000000000018 2.5000000000000004 -1.4999999999999998 -8.4999999999999982 3.5000000000000004 10.500000000000002 10.500000000000002 1.5000000000000002 -1.0000000180025095e-35 1.5000000000000002 8.5000000000000018 3.5000000000000004 9.5000000000000018 1.5000000000000002 9.5000000000000018 -21.499999999999996 9.5000000000000018 22.500000000000004 -13.499999999999998 2.5000000000000004 1.0000000180025095e-35 9.5000000000000018 3.5000000000000004 10.500000000000002 8.5000000000000018 -1.4999999999999998 3.5000000000000004 5.5000000000000009 7.5000000000000009 1.0000000180025095e-35 2.5000000000000004 2.5000000000000004 3.5000000000000004
decision_type=2 2 2 2 2 2 2 2 2 2 2 2 2 2 2 2 2 2 2 2 2 2 2 2 2 2 2 2 2 2 2 2 2 2 2 2 2 2 2 2 2 2 2 2 2 2 2 2 2 2 2 2 2 2 2 2 2 2 2 2 2 2
left_child=1 7 5 -3 9 6 22 15 14 50 11 -7 17 -6 -4 16 31 20 -19 28 -9 23 -2 -22 25 27 -27 -18 -8 36 -31 37 43 34 38 -35 -30 -1 39 -23 -32 54 -43 -33 -45 -26 -47 -46 -21 -44 51 -5 59 -53 -34 -12 58 -58 -56 -52 -40 -61
right_child=2 3 8 4 13 10 19 12 -10 -11 55 -13 -14 -15 -16 -17 24 18 -20 48 21 33 -24 -25 45 26 -28 -29 29 30 40 32 41 35 -36 -37 -38 -39 60 -41 -42 42 49 44 47 46 -48 -49 -50 -51 52 53 -54 -55 56 -57 57 -59 -60 61 -62 -63
leaf_value=-0.036737305256675006 0.084236914066673663 0.067701845878319997 0.1162686354641827 0.0059633868811875129 0.085758121504304258 0.077807094830217777 0.072767839697467127 -0.038659626786048784 0.091098016202208268 0.033611919844893388 0.070338094157772132 0.14202291850584545 -0.036050499959912156 0.026603649921403152 0.17131675520789666 -0.037155155791702296 0.019593792310799232 0.05882311468320587 -0.025869760679275117 0.066215488156031649 0.0047745521087305016 -0.019320980668249756 0.13017118004406689 0.052936460303733973 -0.023045388642059558 0.050711098772278557 0.0055354206447053821 -0.02571241382428522 0.00371961671230139 0.077579664160733253 0.039978564248342618 0.0085599630947428007 -0.01650934367981198 0.014120034228272205 0.019318738753684523 -0.020483813472879111 0.033138824022472153 -0.014106579367950241 -0.027221088076617529 0.005465555444208384 0.060190636352112026 -0.0029316752817382082 -0.025612642092395589 0.014003203216702757 -0.028287447682941426 -0.015379436883923759 0.0098482459916755909 -0.0077505696313055544 0.086334038647069122 -0.020072468706892461 0.010956633452826596 -0.02152693097264468 -0.010619330070277655 -0.0058815904432256982 -0.027510316121518819 0.084340302557595392 -0.03597578078068258 -0.028659491572706187 -0.022377829328554113 -0.0036244533396291565 -0.019146729313907179 0.0063837803638184046
leaf_weight=57.493660345673561 10.056032285094263 15.361710727214811 9.2435563653707522 14.438448607921599 11.125704422593119 11.017392963171007 11.980362147092817 10.862598732113836 14.85289880633354 21.99103881418705 11.770367056131363 17.267695382237434 20.000374495983124 8.3178162276744825 13.447280898690222 74.252146914601326 8.5374649316072482 10.209907591342928 7.5528634190559378 9.4072122573852557 7.9971697777509689 10.339562341570856 8.2311136275529844 7.6153777837753278 12.639126777648928 8.9192142933607119 13.490982234477995 11.384103089570997 8.1299083828926104 13.63382466137409 14.442622169852257 12.674470737576483 11.270767211914061 17.013535842299461 7.7280297726392737 10.96296748518944 12.414963811635969 8.1572625041007978 21.662778332829475 10.164689436554907 14.024544209241867 11.200590088963507 177.09333126246929 7.5815961062908164 9.5585272312164324 10.683412104845049 7.2036153078079215 12.884296655654909 14.253124311566351 118.34744234383106 14.031924068927763 14.488459780812263 12.364017248153685 12.118685707449913 85.75458750128746 13.659373015165329 19.336901620030403 101.02630278468132 49.258652552962303 12.744731739163399 28.02372619509697 13.221210896968842
leaf_count=331 48 76 42 77 53 52 58 61 70 116 56 80 114 42 61 426 46 54 40 45 43 58 40 41 69 48 73 62 42 67 72 70 63 94 42 61 64 46 120 56 70 63 1002 42 53 59 40 71 69 664 76 80 67 66 486 65 110 575 278 69 155 71
internal_value=-0.000297348 -0.0156553 0.0846153 0.0180965 0.0124453 0.0754851 0.0648917 -0.0207306 0.126028 0.00435662 0.0984752 0.11701 -0.00822861 0.0604522 0.148892 -0.0232972 -0.0219333 -0.00452225 0.0228111 0.0574455 -0.0081901 -0.00546618 0.104912 0.0282666 0.000232157 0.00948578 0.0235153 -0.00629626 0.0508225 0.0466257 0.0588881 -0.0243025 -0.023277 -0.0104395 -0.0143889 0.000560053 0.0214972 -0.0339254 -0.0181001 -0.00703341 0.0499362 -0.0247392 -0.022646 -0.00364383 -0.00879552 -0.0126002 -0.00521953 -0.0164973 0.078335 -0.0233934 -0.00253099 -0.00723749 0.00115836 -0.014401 -0.0271465 0.0778593 -0.0276159 -0.0298349 -0.0256378 0.00479904 -0.0226671 0.00147149
internal_weight=1356.92 1149.09 207.832 150.204 134.842 170.289 116.574 998.882 37.5437 115.399 53.7148 28.2851 170.134 19.4435 22.6908 828.748 754.496 150.133 17.7628 98.2866 132.37 121.508 18.2871 15.6125 72.8579 42.3318 22.4102 19.9216 74.6262 62.6459 42.101 681.638 615.987 105.895 77.9188 27.9765 20.5449 65.6509 70.1908 20.5043 28.4672 573.289 306.641 42.6989 30.0244 30.5262 17.887 22.4428 23.6603 295.441 93.4075 41.0456 52.3619 26.6071 266.647 25.4297 255.376 120.363 135.013 39.9979 49.6865 25.9659
internal_count=7410 6409 1001 793 717 828 575 5616 173 622 253 132 939 95 103 4677 4251 825 94 487 731 670 88 84 397 229 121 108 373 315 209 3854 3477 586 431 155 106 377 389 114 142 3241 1729 236 166 168 99 124 114 1666 506 223 283 146 1512 121 1449 685 764 216 275 140
is_linear=0
shrinkage=0.05


Tree=6
num_leaves=63
num_cat=0
split_feature=3 3 12 5 13 13 3 3 6 3 5 5 12 4 5 6 6 13 4 5 5 13 4 5 5 6 6 5 6 5 12 0 0 5 6 6 5 6 0 6 0 5 5 0 3 5 5 6 6 3 6 6 5 13 4 0 0 6 6 5 6 5
split_gain=708.656 78.713 26.837 25.3962 21.0458 17.0134 10.6524 8.43599 7.85979 7.37335 7.04174 5.87457 5.00058 4.70523 7.23235 3.53944 3.48728 3.07726 2.98183 14.9704 6.35176 2.71769 2.22505 3.78783 2.45994 2.03999 1.94242 1.90663 1.89067 1.80741 1.79181 1.66703 1.66315 1.52959 1.46767 2.23147 1.20267 1.10806 0.972843 0.918961 1.0899 0.749984 2.19609 0.730656 0.676533 0.664811 0.644767 0.588298 0.854774 0.534121 0.51971 0.864814 0.469499 0.454025 0.397537 0.35915 0.283805 0.255482 0.234608 0.226571 0.221512 0.212827
threshold=1.5000000000000002 2.5000000000000004 1.0000000180025095e-35 1.0000000180025095e-35 1.0000000180025095e-35 1.0000000180025095e-35 1.0000000180025095e-35 1.0000000180025095e-35 1.5000000000000002 3.5000000000000004 -1.0000000180025095e-35 3.5000000000000004 1.0000000180025095e-35 1.0000000180025095e-35 2.5000000000000004 9.5000000000000018 10.500000000000002 1.0000000180025095e-35 1.0000000180025095e-35 1.0000000180025095e-35 1.5000000000000002 1.0000000180025095e-35 -1.0000000180025095e-35 -1.0000000180025095e-35 -1.4999999999999998 9.5000000000000018 6.5000000000000009 2.5000000000000004 1.5000000000000002 14.500000000000002 1.0000000180025095e-35 3.5000000000000004 3.5000000000000004 -1.0000000180025095e-35 9.5000000000000018 10.500000000000002 13.500000000000002 9.5000000000000018 3.5000000000000004 9.5000000000000018 1.5000000000000002 -5.4999999999999991 -8.4999999999999982 2.5000000000000004 4.5000000000000009 15.500000000000002 11.500000000000002 9.5000000000000018 8.5000000000000018 4.5000000000000009 9.5000000000000018 5.5000000000000009 -5.4999999999999991 1.0000000180025095e-35 -1.0000000180025095e-35 1.5000000000000002 2.5000000000000004 9.5000000000000018 1.5000000000000002 -13.499999999999998 10.500000000000002 -1.4999999999999998
decision_type=2 2 2 2 2 2 2 2 2 2 2 2 2 2 2 2 2 2 2 2 2 2 2 2 2 2 2 2 2 2 2 2 2 2 2 2 2 2 2 2 2 2 2 2 2 2 2 2 2 2 2 2 2 2 2 2 2 2 2 2 2 2
left_child=4 3 8 5 6 10 18 13 -3 21 -2 31 27 14 30 -13 17 26 19 22 -20 34 24 41 60 36 -11 38 -12 -5 54 33 39 52 55 -36 -21 -28 57 40 -30 42 59 -39 53 -15 -27 48 58 -45 51 -35 -8 -4 -6 -10 -7 -9 -25 -24 -1 -33
right_child=1 2 44 29 7 56 11 12 9 16 28 15 -14 45 -16 -17 -18 -19 20 25 -22 -23 23 47 -26 46 37 -29 32 -31 -32 61 -34 50 35 -37 -38 43 -40 -41 -42 -43 -44 49 -46 -47 -48 -49 -50 -51 -52 -53 -54 -55 -56 -57 -58 -59 -60 -61 -62 -63
leaf_value=0.038837009623585467 -0.042265801059995584 -0.094946750942903779 -0.084979363045608047 -0.082568806144053056 0.026423188831116318 -0.055004475119551227 0.014331828795688126 0.014251203645330376 -0.027350343314769682 -0.080163842273291375 -0.023720403560184539 -0.01828347301355213 -0.025747210219887479 0.024732789248166701 -0.027438234476264107 0.010629568046894029 -0.044098474867949419 -0.083080797713755178 0.0014591031076788543 -0.020971252165475591 0.03984005840218182 -0.062502524835727061 0.013027100584477109 0.02539195689925355 0.014034045112952974 -0.0014053939554126227 -0.05010918864380829 -0.018353048636659326 -0.0048261694164611173 -0.056571218188915029 0.0029210081243961055 0.0069938294008789524 -0.014305633377523523 0.020460815527079648 -0.054312143610400224 -0.030955117916837582 0.0016810694696457796 -0.069009534490699159 -0.0045964173296940223 -0.0057106495601977917 0.014335251547544997 0.0023004486473875837 0.036476675529589428 -0.064954810927407347 -0.10320529691167489 0.04114839283796351 0.01451545063292942 0.025641377128855808 0.034728215565307301 -0.050665062524344363 0.018978448449605837 0.028993593343591913 0.0022173266375750656 -0.097709745909346196 0.015806771118854767 -0.038382269680468109 -0.046083367192649383 0.0057377334151941517 0.029461750887142826 0.0038581618113650174 0.030676030510226073 0.013363842631161985
leaf_weight=66.604996144771576 16.752129524946213 14.167259126901625 12.535697251558304 15.233015060424806 10.062933534383772 15.14956423640251 27.324790671467781 16.298595935106277 13.875327020883562 14.222684532403944 16.368890762329102 18.130690291523933 24.007694840431213 11.999009042978289 12.108477413654326 25.432933107018471 18.558990120887756 24.741423308849335 12.506703004240988 14.234743237495424 78.05926613509655 20.343326508998871 15.594605877995489 74.903359204530716 12.683268710970877 10.353191927075388 20.542609214782715 10.620768040418623 13.789433673024179 11.914472639560698 30.56822158396244 15.712956264615057 36.751140713691711 78.065031617879868 34.183499306440353 14.590401023626326 9.9588996320962888 29.98191887140274 18.100446239113808 47.442626297473907 16.069361433386803 12.705940246582029 9.9567009210586566 12.667031764984133 26.440930783748627 12.69127720594406 16.485077753663063 237.1847830414772 53.558036461472511 13.517745912075041 107.8896073102951 47.924902185797691 11.307137519121168 15.871427625417709 71.264858156442642 15.7540365755558 21.66301167011261 19.185280948877335 67.162368625402451 11.863035470247267 9.5008806735277158 79.230657711625099
leaf_count=290 60 47 41 52 43 55 113 67 49 47 61 72 92 51 47 103 65 82 53 57 339 69 64 318 53 42 72 41 55 43 123 64 142 327 118 52 41 100 72 184 64 53 42 43 83 55 68 1004 230 46 449 202 46 51 295 57 79 77 286 49 41 328
internal_value=0.000638844 -0.0494354 -0.0658096 -0.0260147 0.0195146 -0.0193536 0.0223685 0.00597074 -0.0587879 -0.0565892 -0.0117493 0.015957 -0.0062791 0.0132379 0.00926916 -0.00140371 -0.0642183 -0.0674464 0.0260628 0.02483 0.0345398 -0.0462184 0.0271461 0.0258086 0.0344207 -0.00111775 -0.0631925 0.00100045 -0.00782958 -0.071159 0.0132413 0.0180152 -0.00554892 0.020003 -0.0419931 -0.047325 -0.0116468 -0.0600458 0.00483644 -0.00138574 0.0054861 0.012796 0.0163603 -0.0636801 -0.0974494 0.0331707 0.00837379 0.0273155 0.0293453 -0.0575778 0.0215255 0.0237066 0.010786 -0.092092 0.0171204 -0.0332161 -0.0497547 0.00964817 0.027316 0.00906567 0.0378182 0.0123096
internal_weight=1874.37 513.128 301.994 211.134 1361.24 183.986 1124.33 236.908 247.146 232.979 147.174 411.019 88.2128 148.695 124.004 43.5636 134.232 115.673 713.316 622.75 90.566 98.7466 571.718 482.929 88.7891 51.0319 90.932 64.2051 130.421 27.1475 111.896 367.455 114.053 272.511 78.4033 48.7739 24.1936 76.7093 53.5843 77.3014 29.8588 50.1203 37.4143 56.1667 54.8481 24.6903 26.8383 432.809 195.624 26.1848 233.88 125.99 38.6319 28.4071 81.3278 29.6294 36.8126 35.4839 142.066 27.4576 76.1059 94.9436
internal_count=7514 1817 1022 795 5697 700 4734 963 847 800 566 1704 349 614 508 175 455 390 3030 2638 392 345 2430 2046 384 208 308 257 506 95 461 1529 445 1137 276 170 98 261 216 303 119 208 155 189 175 106 110 1838 834 89 978 529 159 92 338 106 134 144 604 113 331 392
is_linear=0
shrinkage=0.05


Tree=7
num_leaves=63
num_cat=0
split_feature=3 5 5 13 6 3 3 0 5 5 0 5 5 6 0 0 3 5 13 12 6 5 6 6 0 6 12 13 6 0 5 6 5 0 5 6 5 0 6 5 5 6 5 5 6 3 0 0 6 0 0 5 0 5 5 5 5 3 12 3 6 3
split_gain=98.1327 9.77871 9.44206 7.88723 6.03513 5.72481 5.09864 4.75071 4.48733 3.35925 5.47371 3.40852 3.27482 3.72702 3.93795 3.12665 3.03599 3.40729 2.84295 2.71137 2.70725 2.30315 2.06237 1.99729 3.30166 4.32052 2.78914 3.77007 1.58583 1.55846 1.42089 1.39542 1.20576 1.20048 1.13099 1.06859 2.44421 1.985 1.43074 1.26948 1.13172 1.0411 4.86555 1.10363 1.02042 0.91572 0.911643 0.900405 0.890995 0.84852 0.818485 0.87628 0.811205 1.16628 0.761131 0.705143 0.60475 0.575054 0.568547 0.542238 0.537571 0.525035
threshold=1.5000000000000002 22.500000000000004 10.500000000000002 1.0000000180025095e-35 10.500000000000002 5.5000000000000009 1.0000000180025095e-35 1.5000000000000002 23.500000000000004 -1.0000000180025095e-35 2.5000000000000004 -13.499999999999998 19.500000000000004 6.5000000000000009 3.5000000000000004 3.5000000000000004 2.5000000000000004 1.0000000180025095e-35 1.0000000180025095e-35 1.0000000180025095e-35 1.5000000000000002 -5.4999999999999991 9.5000000000000018 8.5000000000000018 2.5000000000000004 10.500000000000002 1.0000000180025095e-35 1.0000000180025095e-35 10.500000000000002 3.5000000000000004 1.0000000180025095e-35 9.5000000000000018 1.0000000180025095e-35 1.5000000000000002 -9.4999999999999982 8.5000000000000018 17.500000000000004 2.5000000000000004 1.5000000000000002 12.500000000000002 -1.4999999999999998 8.5000000000000018 1.0000000180025095e-35 10.500000000000002 5.5000000000000009 1.0000000180025095e-35 2.5000000000000004 1.5000000000000002 3.5000000000000004 1.5000000000000002 3.5000000000000004 -1.0000000180025095e-35 2.5000000000000004 -13.499999999999998 -1.0000000180025095e-35 -1.4999999999999998 1.0000000180025095e-35 1.0000000180025095e-35 1.0000000180025095e-35 3.5000000000000004 9.5000000000000018 1.0000000180025095e-35
decision_type=2 2 2 2 2 2 2 2 2 2 2 2 2 2 2 2 2 2 2 2 2 2 2 2 2 2 2 2 2 2 2 2 2 2 2 2 2 2 2 2 2 2 2 2 2 2 2 2 2 2 2 2 2 2 2 2 2 2 2 2 2 2
left_child=3 2 5 6 8 9 28 -7 12 10 -2 -12 13 -5 21 41 18 23 20 32 -11 -15 61 48 33 26 27 59 35 49 57 -20 34 -25 -17 36 37 38 40 52 -1 42 -8 46 -40 -16 47 -43 -18 -22 51 -30 -37 -54 -6 -55 -46 -24 -9 -26 -36 -23
right_child=1 -3 -4 4 54 7 15 58 -10 16 11 -13 -14 14 45 19 17 -19 31 -21 29 22 30 24 25 -27 -28 -29 50 -31 -32 -33 -34 -35 60 39 -38 -39 44 -41 -42 43 -44 -45 56 -47 -48 -49 -50 -51 -52 -53 53 55 -56 -57 -58 -59 -60 -61 -62 -63
leaf_value=-0.035587822271678442 -0.017809754781296341 0.096437412319936466 -0.020642618416807684 0.055743906953805059 -0.0095494799914080507 0.044783663348762937 -0.01185286748618136 -0.0046472148707476868 -0.0357798856742415 0.050900468881528577 0.0038483885284523291 0.058082526796661683 0.055259664224470921 -0.035737452980074101 0.017868039798565643 -0.022871915288195512 0.046661792790980802 0.008277278393126742 0.066684642568654376 0.036669809407325137 0.026597525533293177 -0.01791584382574141 0.0092143975486102484 0.0454312649179546 0.029178228320020556 0.020214954973876015 0.094431674120276615 0.089128965438721772 -0.03563482982654842 0.031616333007431691 -0.014463553378923133 0.034865800766805351 -0.024959737678218307 0.016704014932557076 0.017365927775806766 -0.025772448722289468 0.020223943270715222 0.017882742928747381 -0.035592757194341837 -0.035593647242312919 -0.010699839720936383 0.0034522801878596344 0.038701494921575839 -0.035769306555461948 -0.013445945934252402 0.043935487248645926 -0.0074146863693998798 -0.022318901445395948 0.069537863969905314 0.0078828782591818872 -4.8952905962340461e-05 -0.0090033651992668245 -0.035648036818773737 -0.0044074473001288975 -0.035676189918116372 -0.018023204990953456 -0.035628779805651579 0.025596104315763049 -0.026226863608083295 0.048552020836386905 0.0018188273079851492 -0.00055338470171836167
leaf_weight=5.155217118561267 8.193190239369871 5.2718257904052725 9.7074364125728589 3.8237626180052748 3.8218783736228934 4.9261541441082981 41.931905589997768 7.9472825303673726 5.6932732909917823 7.4572381004691115 4.9953044131398201 6.8971749246120435 3.8400667905807486 4.509297899901866 8.3889125213026983 3.8811324164271346 7.2213162481784847 6.7142965868115416 5.8224211931228629 5.5144061744213095 7.9872521087527266 11.256026409566404 13.348106808960441 4.8914561420679101 6.8534357845783287 8.8681687116622907 4.957955799996852 5.1682630255818358 4.2561444193124762 15.514565229415892 4.6993175148963919 8.4410505518317205 4.5672839507460585 14.177121624350548 7.5256695449352291 55.830943301320076 4.4650294110178939 3.7359952554106703 17.382873795926571 17.028911001980305 40.081405989825726 3.8229270800948134 5.3688106909394255 6.2495214492082587 13.517986655235292 5.630129560828208 30.019360773265362 29.880151711404324 10.367411546409128 25.058912478387356 15.445205919444561 11.262073546648026 8.3681038692593557 11.216826334595678 10.300754077732561 62.452878229320049 3.9761473909020415 8.9484656006097794 4.9553987011313438 7.6351828947663307 21.287244707345963 7.1011017933487883
leaf_count=58 77 47 92 40 41 43 452 75 60 67 46 64 39 48 88 41 62 59 51 56 78 122 142 43 58 82 40 42 47 148 50 77 46 130 79 619 47 41 195 191 440 40 56 66 149 55 321 322 86 243 169 124 92 125 112 689 44 91 44 63 225 75
internal_value=-0.000562191 0.0292434 0.0274246 -0.0119058 0.0014475 0.0299461 -0.0147153 0.00301276 0.00694257 0.0328177 0.0136371 0.0353021 0.0103423 0.00779465 0.00492454 -0.00762394 0.035436 0.0423043 0.0279254 0.0039474 0.022851 -0.00165796 0.00173045 0.0455616 0.0406803 0.0501381 0.0609187 0.0524659 -0.0188548 0.0185436 0.0105228 0.0478544 -0.000895274 0.0240731 0.00246648 -0.0202116 -0.0158224 -0.0177419 -0.0194032 -0.0227141 -0.0135361 -0.0118446 -0.00611476 -0.015718 -0.027013 0.0283369 -0.0137515 -0.0193957 0.0601457 0.0124062 -0.0081974 -0.0163075 -0.0211233 -0.0179593 -0.0286058 -0.0159501 -0.0184878 0.015789 -0.0129351 0.0393878 0.00587959 -0.0111995
internal_weight=725.615 200.03 194.758 525.585 91.3611 185.051 434.224 17.8288 77.2385 167.222 20.0857 11.8925 71.5452 67.7051 63.8814 160.048 147.136 76.8546 70.2814 42.7757 56.018 49.8623 45.353 70.1403 52.5516 33.483 24.6148 19.6569 274.176 48.5607 26.9959 14.2635 37.2613 19.0686 32.694 243.212 88.3147 83.8496 80.1136 154.898 45.2366 117.273 47.3007 69.972 34.877 14.019 63.7224 33.7031 17.5887 33.0462 30.9634 15.5182 137.869 82.0378 14.1226 73.6697 17.4941 22.2966 12.9027 14.4886 28.8129 18.3571
internal_count=7514 1817 1770 5697 963 1678 4734 162 810 1516 187 110 750 711 671 1704 1329 665 664 447 536 528 480 606 458 285 203 163 3030 469 283 128 391 173 345 2690 974 927 886 1716 498 1257 508 749 388 143 683 362 148 321 340 171 1525 906 153 814 193 233 119 121 304 197
is_linear=0
shrinkage=0.05


Tree=8
num_leaves=63
num_cat=0
split_feature=3 3 3 5 5 13 5 5 5 13 3 4 4 5 5 5 5 5 13 0 5 5 4 5 5 5 6 0 6 6 3 5 4 5 6 0 6 6 0 6 6 0 6 6 6 6 5 0 6 5 5 6 6 5 6 5 3 0 0 6 0 0
split_gain=575.339 84.0046 23.4519 21.5151 16.6133 11.3923 9.50834 11.7922 10.4502 6.75186 6.23218 5.92038 5.77996 17.575 5.84784 5.73608 10.0874 5.40292 5.32538 4.72797 4.65459 4.49972 4.09365 6.24725 4.2611 4.04131 3.33854 2.98433 2.64209 2.47746 2.46948 2.24769 2.15304 3.91694 1.96647 1.4114 3.5004 2.7395 1.26767 1.1383 0.981214 0.930336 0.787368 0.75104 0.736588 3.41436 0.733627 0.721406 0.469014 0.422051 1.45972 0.423274 0.405867 0.368428 0.348038 0.333295 0.324471 0.310169 0.29617 0.274375 0.253742 0.253536
threshold=2.5000000000000004 1.5000000000000002 5.5000000000000009 1.0000000180025095e-35 -1.0000000180025095e-35 1.0000000180025095e-35 1.0000000180025095e-35 -1.0000000180025095e-35 14.500000000000002 1.0000000180025095e-35 3.5000000000000004 5.5000000000000009 1.0000000180025095e-35 1.0000000180025095e-35 14.500000000000002 1.0000000180025095e-35 21.500000000000004 1.0000000180025095e-35 1.0000000180025095e-35 2.5000000000000004 -9.4999999999999982 14.500000000000002 -1.0000000180025095e-35 -1.4999999999999998 -10.499999999999998 5.5000000000000009 6.5000000000000009 3.5000000000000004 9.5000000000000018 3.5000000000000004 1.0000000180025095e-35 -1.0000000180025095e-35 -1.4999999999999998 -8.4999999999999982 9.5000000000000018 3.5000000000000004 10.500000000000002 10.500000000000002 1.5000000000000002 9.5000000000000018 10.500000000000002 2.5000000000000004 6.5000000000000009 8.5000000000000018 8.5000000000000018 6.5000000000000009 21.500000000000004 2.5000000000000004 9.5000000000000018 -5.4999999999999991 -1.4999999999999998 9.5000000000000018 5.5000000000000009 -2.4999999999999996 10.500000000000002 29.500000000000004 4.5000000000000009 2.5000000000000004 1.5000000000000002 1.0000000180025095e-35 2.5000000000000004 2.5000000000000004
decision_type=2 2 2 2 2 2 2 2 2 2 2 2 2 2 2 2 2 2 2 2 2 2 2 2 2 2 2 2 2 2 2 2 2 2 2 2 2 2 2 2 2 2 2 2 2 2 2 2 2 2 2 2 2 2 2 2 2 2 2 2 2 2
left_child=1 5 6 4 -3 12 7 20 -8 44 34 15 13 30 25 22 -17 19 26 -4 -2 -5 -7 24 -24 29 -12 56 -27 -15 32 47 53 -34 42 36 38 -37 43 52 60 -16 -9 -25 45 -6 -43 -32 -11 -35 -51 -52 59 -1 61 -14 -28 -53 -54 -33 -36 -46
right_child=2 3 17 21 9 11 8 10 -10 48 18 -13 55 14 41 16 -18 -19 -20 -21 -22 -23 23 35 -26 28 27 -29 -30 -31 31 39 33 49 40 37 -38 -39 -40 -41 -42 46 -44 -45 54 -47 -48 -49 -50 50 51 57 58 -55 -56 -57 -58 -59 -60 -61 -62 -63
leaf_value=-0.037147513989776539 0.069741413539704311 0.05834727796569722 0.11081020808046634 0.086938698702597475 0.0041099178251128793 -0.038406161995306831 0.11269576803272348 0.039962916221852399 0.05423995010338635 0.01980353296022562 0.081963879546068152 -0.038218064808840393 -0.038156744953031944 0.017267101007696531 0.00030060610494165354 0.043509532152773617 -0.026622038083062169 0.13484608402124523 0.086938170263529721 0.072556273511261066 0.11283112627227197 0.039652645137744434 -0.0034650129376369771 -0.017790380125861493 0.047348535304482825 0.046070359352850136 0.035443827302203856 0.067236757409152983 0.012233987440636893 -0.019653174896779802 -0.0013517087411448218 -0.026225282089479954 -0.0038092984527936277 -0.038452951166499466 0.057922749102704611 0.010450001910023434 0.015784837822844698 -0.021106643203364826 -0.022879145794629133 -0.019100995495899543 0.034638336841381616 -0.02933811125141841 0.022082577860940054 0.0018509036067610137 0.0084319167467453281 -0.033126696730408182 -0.011696411462161795 -0.015103685708222549 0.034584432227933143 -0.0041397154227546399 -0.028755280010704931 -0.02200097369600601 -0.03833054159093148 -0.025470672590996113 -0.0056360242792627014 -0.028411799924252808 0.04641695893127229 -0.026545789507644153 -0.027928771271809691 -0.01884558009216937 0.048515260770698884 0.0012429244597425941
leaf_weight=50.81760585308075 13.532731339335443 16.725956991314888 18.301962897181511 11.735442370176317 19.657098472118381 11.50507779419422 18.398586273193363 11.196575447916985 13.081610813736914 8.4130726903677004 9.3506416678428632 15.706200107932089 60.447353333234787 7.9989891350269344 7.6940256059169796 13.89955209195614 8.1242854446172696 10.702945709228514 17.138676732778549 14.458025276660917 11.673263818025587 8.8064166605472547 8.4296315312385577 9.6383247971534747 8.0807386785745603 10.565840497612955 17.785114362835884 14.827465966343878 12.708432987332342 10.519074246287344 16.102780535817146 32.902230262756348 20.093792170286179 7.2709524631500235 13.172288313508036 17.231694236397743 8.2100521475076658 11.445682168006899 50.759190320968628 116.05365972220898 10.008843660354612 10.789226546883585 13.678988382220268 9.8316947817802411 18.949893325567245 8.9632167220115644 12.985574156045912 23.386817172169685 14.822619527578352 7.2832583487033835 146.57345798611641 54.959325700998306 8.3315336257219297 7.7909220904111853 12.009976431727408 10.264143064618109 10.844656556844713 118.45155909657478 38.311463207006454 20.407351896166801 15.724213778972624 34.762715473771095
leaf_count=308 59 78 74 52 104 67 74 52 56 42 41 94 365 43 43 73 44 42 73 61 50 43 45 55 42 56 82 67 69 59 91 192 113 42 59 94 44 65 286 667 47 61 66 54 101 50 73 132 74 42 865 321 49 46 65 62 47 693 224 118 72 186
internal_value=-0.000574473 -0.015225 0.0708637 0.019011 0.011722 -0.0206039 0.0632993 0.0583267 0.0884044 0.00508945 0.0524138 -0.00894794 -0.0230831 -0.0217815 0.0014677 -0.00602267 0.017639 0.104004 0.062721 0.0939275 0.0896969 0.0666669 -0.00987905 -0.00722424 0.0214049 0.0137258 0.0548614 0.0490298 0.0275947 -0.00370524 -0.0243284 -0.0204643 -0.0267175 -0.0252504 0.0411102 -0.011637 -0.0151073 -0.00214485 -0.0187187 -0.0224695 0.0481304 -0.0148117 0.0301306 -0.0078722 -0.000856767 -0.00755172 -0.0197024 -0.009496 0.0292326 -0.0265382 -0.0262735 -0.0267773 -0.0263805 -0.0355953 0.0020587 -0.0367422 0.0396003 -0.0251054 -0.0297868 -0.0234003 0.0528036 0.00377921
internal_weight=1374.29 1140.42 233.877 154.846 134.305 985.571 190.414 158.933 31.4802 117.579 133.727 172.862 812.709 741.998 73.2612 157.156 22.0238 43.4629 69.9466 32.76 25.206 20.5419 135.132 123.627 16.5104 41.7923 52.8079 43.4572 23.2743 18.5181 668.737 255.496 413.241 354.632 63.7809 107.117 78.4393 28.6774 70.2292 216.006 38.9053 31.4688 24.8756 19.47 94.3429 28.6203 23.7748 39.4896 23.2357 334.539 327.268 319.984 99.9526 58.6085 65.7226 70.7115 28.6298 173.411 46.643 53.3096 28.8965 53.7126
internal_count=7514 6492 1022 795 700 5697 845 715 130 622 606 963 4734 4307 404 869 117 177 310 135 109 95 752 685 87 227 237 196 125 102 3903 1473 2430 2076 296 598 439 159 395 1250 178 177 118 109 506 154 134 223 116 1963 1921 1879 583 354 352 427 129 1014 273 310 131 287
is_linear=0
shrinkage=0.05


Tree=9
num_leaves=63
num_cat=0
split_feature=3 3 3 5 12 13 13 6 5 5 13 6 3 12 4 5 4 4 5 5 5 6 12 6 6 13 5 6 5 6 6 12 5 6 5 6 3 6 5 5 6 6 6 6 5 5 5 3 6 6 6 5 6 6 5 13 6 5 6 6 6 5
split_gain=613.45 69.1277 20.3735 19.7769 15.8411 14.1886 12.8629 7.72761 6.54508 6.48023 6.37751 5.47174 5.5707 3.60362 3.51922 8.23992 3.19292 3.79187 10.4635 6.47253 4.09296 3.08153 3.06854 3.94436 2.69005 2.52649 2.47323 2.2846 2.18817 1.96511 1.95661 1.70423 1.69622 2.20695 1.32656 1.2216 1.18112 1.11046 1.10663 1.55605 0.959704 0.702615 1.03421 0.626831 0.551938 0.535344 0.522101 0.50395 0.429762 0.585723 0.805606 0.398704 0.309516 0.589766 0.30515 0.266766 0.204752 0.171564 0.133649 0.102517 0.0995499 0.0840173
threshold=1.5000000000000002 2.5000000000000004 1.0000000180025095e-35 2.5000000000000004 1.0000000180025095e-35 1.0000000180025095e-35 1.0000000180025095e-35 10.500000000000002 -1.0000000180025095e-35 3.5000000000000004 1.0000000180025095e-35 1.5000000000000002 3.5000000000000004 1.0000000180025095e-35 1.0000000180025095e-35 1.5000000000000002 -1.4999999999999998 1.0000000180025095e-35 1.0000000180025095e-35 1.5000000000000002 -1.4999999999999998 9.5000000000000018 1.0000000180025095e-35 10.500000000000002 1.5000000000000002 1.0000000180025095e-35 -2.4999999999999996 9.5000000000000018 -1.0000000180025095e-35 9.5000000000000018 7.5000000000000009 1.0000000180025095e-35 -1.0000000180025095e-35 6.5000000000000009 1.0000000180025095e-35 9.5000000000000018 4.5000000000000009 9.5000000000000018 -5.4999999999999991 -8.4999999999999982 9.5000000000000018 10.500000000000002 9.5000000000000018 9.5000000000000018 -11.499999999999998 19.500000000000004 -17.499999999999996 3.5000000000000004 8.5000000000000018 7.5000000000000009 2.5000000000000004 9.5000000000000018 9.5000000000000018 10.500000000000002 -13.499999999999998 1.0000000180025095e-35 8.5000000000000018 16.500000000000004 10.500000000000002 5.5000000000000009 6.5000000000000009 16.500000000000004
decision_type=2 2 2 2 2 2 2 2 2 2 2 2 2 2 2 2 2 2 2 2 2 2 2 2 2 2 2 2 2 2 2 2 2 2 2 2 2 2 2 2 2 2 2 2 2 2 2 2 2 2 2 2 2 2 2 2 2 2 2 2 2 2
left_child=2 3 10 6 7 9 8 11 -2 28 16 -3 29 -8 15 31 26 18 20 -19 44 -11 23 34 -10 32 -1 51 38 60 -26 52 -14 -34 35 -7 55 -35 39 54 56 42 -32 48 46 -16 -18 -9 49 50 -30 -20 -12 -54 -4 -6 -22 -29 -42 -52 -13 -23
right_child=1 4 5 -5 36 22 13 47 24 21 14 12 25 -15 45 -17 17 19 27 -21 40 61 -24 -25 30 -27 -28 57 43 -31 41 -33 33 37 -36 -37 -38 -39 -40 -41 58 -43 -44 -45 -46 -47 -48 -49 -50 -51 59 -53 53 -55 -56 -57 -58 -59 -60 -61 -62 -63
leaf_value=0.038289924199616326 -0.039296320932054749 -0.085577410137788454 0.0095489095551542988 -0.065871587349709201 -0.07123019843793417 0.004103095519755651 -0.033534611737481478 -0.025692025849161387 -0.027080417591113237 -0.02054002140158424 0.022048922894498276 -0.041365118439873672 -0.07611384219490866 -0.066769703435594602 0.025238644184360937 -0.030049806021536035 0.012142679375489391 -0.00035380628160447961 -0.01755298426632727 0.039216708680992529 0.027634342172188582 0.0095532212301918523 -0.02309985399917228 0.026893900787506225 0.011358313363464771 -0.075813070593180792 0.01193021481877707 0.013759254064822183 0.017249593907033869 -0.0527233771034109 -0.0012467870627252294 0.0041871907949409277 -0.073477494121737666 -0.042198133386871207 -0.02339465460755669 -0.012447714971403413 -0.090859597591892216 -0.056275162448337024 -0.0061749460013208043 0.027280312477243874 0.023210409241215636 0.0018140954236579732 -0.013006808853479776 0.015798303188181147 0.0151624939433579 0.040613429127254491 -0.0040237925489766792 -0.037833128454789013 0.02476263013110163 0.010885612725505556 0.025187034851085477 -0.0045179134208978853 0.012402437592693841 0.02506655976560004 -0.00085321218760357341 -0.08047509964120321 0.031275864365487176 0.0053304563159438448 0.026131351107608065 0.031573093441028453 -0.03597663882030061 0.0036212618720201021
leaf_weight=65.549571588635445 18.331664532423019 16.410468310117722 15.576590374112127 24.070573717355728 13.32240456342697 23.756404548883438 27.435000211000443 15.471133023500441 15.456892371177672 17.403936326503754 30.721649840474129 12.56642910838127 12.153855383396147 11.606689542531965 15.799362242221834 11.60465347766876 10.134733483195307 12.036239266395567 11.657220855355265 73.072650790214539 145.91488765180111 13.906385049223902 24.109248101711273 9.8706081956624967 16.000634431838989 27.353747516870499 10.296396136283873 16.02214436233044 60.263911873102188 48.296149551868439 27.406456902623177 30.351269960403442 15.152572631835936 19.230406403541565 10.521362006664274 21.007800742983818 26.787806540727615 51.601598352193832 12.470686703920363 10.604604467749597 179.24218313395977 17.143508851528168 58.818046301603317 163.69894008338451 26.720188722014427 8.8239055722951871 9.846149727702139 19.09698811173439 39.464848265051842 19.760225504636765 15.572124198079111 11.808936446905134 36.050296112895012 12.340157121419905 12.880200207233427 18.834778994321823 52.486335843801498 9.687446862459181 50.109530627727509 10.536915317177771 26.960840344429016 10.458217054605482
leaf_count=298 63 51 65 80 41 97 96 53 56 68 129 42 39 40 69 44 42 52 46 332 640 57 91 40 63 85 45 66 258 158 108 123 47 64 40 84 79 165 51 45 782 67 224 693 114 40 41 64 170 85 67 48 152 53 53 57 234 41 218 46 92 43
internal_value=-9.57514e-05 -0.0450272 0.0182388 -0.0231465 -0.0596669 0.0101748 -0.0177957 -0.0544395 -0.011265 0.0141735 0.0230161 -0.0577561 -0.0556157 -0.0434151 0.013517 0.0100124 0.0250376 0.0238323 0.0222414 0.0336206 0.0245169 -0.00447118 -0.00786003 -0.00222095 -0.00745366 -0.0623752 0.0347115 0.000287144 0.0163318 -0.0459571 -0.00491222 0.0142596 -0.0586297 -0.0561583 -0.00741908 -0.00366418 -0.0831049 -0.0524533 0.00679268 0.0109327 0.0260513 -0.00743078 -0.00926889 0.0179211 0.010462 0.0307483 0.00417619 -0.0323993 0.0203078 0.0186514 0.020428 -0.0109933 0.0181239 0.0156319 0.00484067 -0.076645 0.0285977 0.0105833 0.0238486 0.0277643 -0.0376897 0.007007
internal_weight=1861.65 539.509 1322.14 216.269 323.239 491.863 192.199 264.294 153.157 402.598 830.276 229.726 213.316 39.0417 145.691 121.068 684.585 608.739 523.63 85.1089 474.454 41.7685 89.2654 65.1562 134.826 125.492 75.846 49.1757 360.829 87.8234 119.369 109.463 98.1384 85.9846 55.2856 44.7642 58.945 70.832 51.5321 39.0614 427.753 103.368 86.2245 309.297 46.7011 24.6233 19.9809 34.5681 145.598 106.133 86.373 23.4662 79.1121 48.3905 28.4568 32.1572 198.401 25.7096 229.352 26.109 39.5273 24.3646
internal_count=7496 1834 5662 797 1037 2053 717 860 581 1701 3609 743 692 136 610 501 2999 2656 2272 384 2071 168 352 261 518 400 343 201 1533 292 462 457 315 276 221 181 177 229 214 163 1874 399 332 1319 197 109 83 117 626 456 371 94 334 205 118 98 874 107 1000 113 134 100
is_linear=0
shrinkage=0.05


Tree=10
num_leaves=63
num_cat=0
split_feature=3 6 3 4 4 5 5 5 5 6 6 3 5 13 6 6 13 6 13 12 6 6 6 12 3 3 3 5 4 4 5 5 4 6 6 6 6 5 4 5 4 13 3 6 3 4 5 5 4 5 6 6 6 6 5 5 5 12 4 6 6 3
split_gain=75.4261 11.0856 10.8772 26.9879 24.6971 8.84778 6.4568 6.15631 5.00909 4.481 5.69548 4.32725 3.4463 2.56249 1.98099 1.94605 1.86663 4.27708 1.39951 9.99867 5.04022 3.32449 2.84797 1.31262 1.18969 0.996703 0.873595 0.813002 1.84713 0.829893 1.06207 1.2655 0.754668 0.69037 0.935718 1.29587 1.01127 0.778402 0.686407 2.3011 0.661459 0.656255 0.596892 0.574425 0.811632 0.559334 3.18192 1.79311 0.684021 0.586396 0.563494 0.890167 0.539382 0.518673 0.484603 1.04826 0.453639 0.572456 0.439845 0.336365 0.647556 0.285236
threshold=1.5000000000000002 8.5000000000000018 1.0000000180025095e-35 1.5000000000000002 -1.4999999999999998 6.5000000000000009 1.0000000180025095e-35 20.500000000000004 20.500000000000004 4.5000000000000009 6.5000000000000009 6.5000000000000009 -13.499999999999998 1.0000000180025095e-35 10.500000000000002 2.5000000000000004 1.0000000180025095e-35 10.500000000000002 1.0000000180025095e-35 1.0000000180025095e-35 10.500000000000002 9.5000000000000018 9.5000000000000018 1.0000000180025095e-35 2.5000000000000004 3.5000000000000004 2.5000000000000004 -3.4999999999999996 -2.4999999999999996 -1.0000000180025095e-35 -11.499999999999998 -17.499999999999996 33.500000000000007 2.5000000000000004 6.5000000000000009 8.5000000000000018 9.5000000000000018 1.0000000180025095e-35 17.500000000000004 14.500000000000002 1.0000000180025095e-35 1.0000000180025095e-35 2.5000000000000004 10.500000000000002 4.5000000000000009 7.5000000000000009 21.500000000000004 9.5000000000000018 4.5000000000000009 -1.4999999999999998 1.5000000000000002 4.5000000000000009 1.0000000180025095e-35 10.500000000000002 -3.4999999999999996 -11.499999999999998 -1.0000000180025095e-35 1.0000000180025095e-35 1.0000000180025095e-35 9.5000000000000018 8.5000000000000018 3.5000000000000004
decision_type=2 2 2 2 2 2 2 2 2 2 2 2 2 2 2 2 2 2 2 2 2 2 2 2 2 2 2 2 2 2 2 2 2 2 2 2 2 2 2 2 2 2 2 2 2 2 2 2 2 2 2 2 2 2 2 2 2 2 2 2 2 2
left_child=2 5 13 4 -4 9 11 26 16 15 -11 12 -3 27 38 -2 23 -18 19 21 22 61 -20 33 53 -24 -8 29 -29 -1 31 -31 45 -6 -35 -36 -37 54 39 40 56 42 -12 44 -26 46 48 -47 49 -30 52 -52 -51 -23 55 -38 -15 -58 59 60 -53 -14
right_child=1 6 3 -5 8 -7 7 -9 -10 10 41 -13 18 14 -16 -17 17 -19 20 -21 -22 24 25 -25 43 -27 -28 28 32 30 -32 -33 -34 34 35 36 37 -39 -40 -41 -42 -43 -44 -45 -46 47 -48 -49 -50 50 51 58 -54 -55 -56 -57 57 -59 -60 -61 -62 -63
leaf_value=-0.030973237529833608 0.030266202599992544 -0.012043059171836656 0.11427063250329945 0.1138578193944882 -0.0046784691209727459 0.10351498618314199 -0.0059713115083621024 0.039043481735935234 0.034442670825328578 0.092194921622952689 0.034051887398995791 -0.019337914296199819 0.00085996582321695323 -0.013769308248012988 -0.029299391065753463 -0.0027086177670679885 0.011656566157607453 -0.035714551049509699 0.071113522885348307 0.072536245474288316 -0.0047760383361194437 0.018380565482501939 0.042879613829259026 0.0074348896400786542 0.030505270791403135 0.018359267221998599 -0.031408185438776659 0.012645216295058895 -0.00015836941198791102 -0.022638026853174523 -0.02897218339718817 0.018316394193276811 0.0047268450590922835 -0.029709643366083113 0.0047608131913153655 -0.024766218937157379 -0.0028269689693042714 -0.028020609495036725 -0.022600206696749208 0.034175973110558193 -0.023430025737334936 0.025332805663852473 0.055559311138958262 0.040382316341829531 0.011899659616505088 0.0032914014131241705 0.026958730302107062 -0.035497906779620385 0.002461564184593736 -0.015428010405645218 -0.035456701717356563 -0.016233124106295734 0.0046782669880938077 0.0024480275747988532 -0.0082403090021942686 -0.035653782342882474 -0.0035189631679444829 0.012737679898998232 -0.03552552588010089 -0.017212965476445585 -0.028593710232038674 -0.014095765230125108
leaf_weight=22.325686514377594 17.95987202227116 6.210432030260562 4.3158506304025641 4.9908378273248664 25.8260093703866 5.681593880057334 4.9455222412943867 5.3022335469722739 7.0972988605499259 6.5916129052639034 6.4072145521640795 5.9424790218472472 10.842892646789549 6.8617150336503974 7.9921807125210753 5.9588625729084006 25.232138231396679 5.8743103817105284 7.4128614589571979 9.1515186354517919 6.3496628999710074 23.849850684404377 11.949863292276861 9.2491675391793233 20.111647307872776 6.3447148874402037 10.6315356567502 5.1723725199699393 4.2354075759649268 3.8399859145283699 7.6323313936591131 3.707384966313839 3.7260315120220175 8.4892110675573331 9.8937305361032468 18.394307680428028 4.5687839910387993 6.6013877168297759 3.8728849589824668 4.2839849144220343 4.0919155031442633 6.4343774542212477 6.4972438588738441 7.8265662342309943 8.2725789472460729 3.8554858639836338 3.9928915947675696 13.1108510941267 3.9513287320733061 32.248824723064899 9.1170141845941526 20.684547498822212 3.7204047068953505 6.5003970414400092 56.543753065168858 5.1997132226824743 21.747710920870308 7.2107904329895964 4.076334796845912 95.387484945356846 21.724704466760159 4.5158470049500457
leaf_count=265 150 57 38 43 283 40 44 46 69 53 59 55 105 76 91 54 254 63 58 74 57 223 98 96 165 50 100 56 48 42 88 41 43 95 108 203 50 74 45 44 45 50 51 70 71 43 44 153 46 363 108 234 41 63 620 57 234 75 47 1084 253 41
internal_value=0.000114889 0.0252103 -0.0102845 -0.000893255 -0.00395117 0.0443977 0.0183872 -0.00749215 -0.00673976 0.0376598 0.0520575 0.0223814 0.0242982 -0.0159526 -0.00624889 0.0220512 -0.00840167 0.00271075 0.0261313 0.0229686 0.035116 0.0174312 0.0449693 -0.0107894 0.0222697 0.0343757 -0.0233323 -0.018025 -0.0168889 -0.0248404 -0.0158204 -0.00252058 -0.0175838 -0.0120333 -0.0137649 -0.0124274 -0.0142898 -0.0116469 -0.0024164 -0.000647705 -0.00438552 0.0383767 0.0448806 0.0283895 0.0250827 -0.0179685 -0.017226 -0.0266833 -0.0181301 -0.0185556 -0.0189724 -0.0203122 -0.0133484 0.0149681 -0.0100169 -0.0203005 -0.00220997 0.00052901 -0.019339 -0.0188601 -0.022565 -0.00353739
internal_weight=722.538 211.691 510.847 192.277 187.286 55.5308 156.161 20.8793 182.97 49.8492 25.9304 135.281 129.339 318.57 56.0612 23.9187 175.873 31.1064 123.128 91.0713 32.0571 81.9198 25.7074 144.766 66.561 18.2946 15.5771 262.509 225.004 37.5054 15.1797 7.54737 219.831 135.517 109.691 101.202 91.3079 72.9136 48.069 44.1961 39.9121 19.3388 12.9045 36.2108 28.3842 216.105 199.139 16.9663 195.146 191.195 186.959 150.99 35.9692 30.3502 66.3123 9.7685 35.8202 28.9585 141.873 137.797 42.4093 15.3587
internal_count=7496 1834 5662 2053 2010 457 1377 190 1972 417 213 1187 1132 3609 610 204 1903 317 1075 812 263 738 206 1586 592 148 144 2999 2563 436 171 83 2507 1490 1207 1112 1004 801 519 474 430 160 110 306 236 2464 2268 196 2224 2178 2130 1726 404 286 727 107 385 309 1618 1571 487 146
is_linear=0
shrinkage=0.05


Tree=11
num_leaves=63
num_cat=0
split_feature=3 3 12 5 5 6 6 12 6 13 5 6 4 5 5 3 13 6 5 3 4 5 3 13 5 6 5 6 5 6 6 3 3 13 5 5 5 6 6 6 5 6 3 6 5 13 3 5 6 5 6 6 3 3 6 5 5 5 6 6 6 6
split_gain=495.81 78.2366 24.1817 19.7327 12.8556 12.3368 12.0469 11.632 11.407 7.35791 6.5218 6.43155 6.32007 13.7413 6.27803 7.38119 5.6296 5.39822 4.62109 3.69111 3.68838 8.83965 3.07527 2.88696 2.314 2.30486 1.91336 1.8089 1.52949 1.48695 2.51175 1.34166 1.32209 1.15958 1.13962 1.43665 1.41046 1.71132 1.08213 0.90252 1.40479 0.841073 0.724685 0.686604 0.569519 0.419918 0.413213 0.404695 1.96251 1.33932 0.381011 0.7574 0.348782 0.330258 0.291761 0.263528 0.258717 0.253527 0.23645 0.210143 0.196963 0.24006
threshold=1.5000000000000002 2.5000000000000004 1.0000000180025095e-35 1.0000000180025095e-35 -1.0000000180025095e-35 1.5000000000000002 8.5000000000000018 1.0000000180025095e-35 10.500000000000002 1.0000000180025095e-35 3.5000000000000004 4.5000000000000009 1.0000000180025095e-35 1.0000000180025095e-35 -1.0000000180025095e-35 4.5000000000000009 1.0000000180025095e-35 7.5000000000000009 14.500000000000002 4.5000000000000009 -1.4999999999999998 -8.4999999999999982 1.0000000180025095e-35 1.0000000180025095e-35 1.5000000000000002 9.5000000000000018 14.500000000000002 9.5000000000000018 -1.0000000180025095e-35 8.5000000000000018 3.5000000000000004 5.5000000000000009 3.5000000000000004 1.0000000180025095e-35 -22.499999999999996 -17.499999999999996 -10.499999999999998 9.5000000000000018 9.5000000000000018 3.5000000000000004 5.5000000000000009 10.500000000000002 1.0000000180025095e-35 10.500000000000002 -1.4999999999999998 1.0000000180025095e-35 1.0000000180025095e-35 33.500000000000007 9.5000000000000018 18.500000000000004 5.5000000000000009 4.5000000000000009 1.0000000180025095e-35 1.0000000180025095e-35 9.5000000000000018 10.500000000000002 -1.0000000180025095e-35 -1.0000000180025095e-35 7.5000000000000009 9.5000000000000018 3.5000000000000004 1.5000000000000002
decision_type=2 2 2 2 2 2 2 2 2 2 2 2 2 2 2 2 2 2 2 2 2 2 2 2 2 2 2 2 2 2 2 2 2 2 2 2 2 2 2 2 2 2 2 2 2 2 2 2 2 2 2 2 2 2 2 2 2 2 2 2 2 2
left_child=7 3 5 4 -2 -3 11 12 14 10 41 -7 13 20 -8 24 29 -13 -5 23 28 34 38 -4 25 -16 39 44 -1 30 -6 -17 -27 42 -22 -36 37 -37 -11 -15 -41 59 57 54 -23 50 -14 48 -28 -50 51 60 -47 -35 -31 -42 -44 -29 -52 -9 61 -46
right_child=1 2 19 18 16 6 8 9 -10 22 -12 17 46 26 15 31 -18 -19 -20 -21 21 27 -24 -25 -26 32 47 33 -30 43 -32 -33 -34 53 35 36 -38 -39 -40 40 55 -43 56 -45 45 52 -48 -49 49 -51 58 -53 -54 -55 -56 -57 -58 -59 -60 -61 -62 -63
leaf_value=-0.036939295662648024 0.050662422016449826 0.10231894649914844 0.061480637961355111 0.083767147851792054 0.0048818898170841559 0.053141010201338851 0.09280851397387424 -0.027636947064269696 0.029121803577418909 0.014788076462457087 0.017348410557160542 -0.016274340229577817 -0.036421518924314361 0.018738034043044978 0.023500410569505074 0.067570618668421109 0.026594129574049614 0.031099739007967184 0.036453657179385583 0.10924759658319404 -0.018133009192144278 -0.014446949643725934 0.027476727507001544 0.095413181783099488 0.069220197212146381 0.043738433978729702 0.007729088284484798 -0.015533613557228147 -0.013786441847409828 -0.00056802193520171472 -0.024565225158658072 0.085978342453988568 0.061006744083129318 -0.016675672309141559 0.019326019870783938 0.0089917911745957309 0.014514228834159287 -0.02171135069474683 -0.0061249269547853508 -0.012947573450471218 0.0046191046563236514 -0.03822104384763949 -0.010350584598497751 -0.0066546227963031794 -0.02693288576542311 -0.025646761400936482 -0.023591276173415648 0.0021705933429941138 -0.0047779612149193278 -0.03040736399935386 -0.034921666552019011 -0.013396476977336747 -0.015551210181329468 -0.0081927122254236272 0.0083444202500772818 0.016695658864875305 -0.01924741035275648 -0.024269377590363465 -0.028343783575007254 -0.018135156447615746 -0.033206436125732916 -0.020430004708873767
leaf_weight=55.391609251499176 18.00154310464859 13.096061706542967 10.546652123332024 11.911874011158945 14.703743770718576 15.74167527258396 17.402864381670952 9.539774477481842 27.007628336548805 9.3146164864301699 10.714525982737539 9.9368855059146881 70.209700033068657 12.072859063744543 9.4030008167028409 18.203130781650543 24.749701455235481 15.228926360607147 9.1058381348848325 22.683700382709503 7.3063078820705405 10.442427828907965 17.918953463435173 15.451962143182755 13.387623906135557 27.652620241045952 9.6585886925458926 8.7872202098369581 8.1874213218688947 11.743623837828634 14.268983930349348 21.698360532522202 18.49917471408844 27.614490017294884 10.344336450099943 7.3392112404108074 8.4494815319776553 11.892509654164312 18.414237648248672 9.7332735955715197 9.0991817861795443 11.532176122069357 8.8809135258197767 12.38693183660507 89.398617297410965 19.527682229876518 6.8913986384868613 7.3401573300361624 8.8555413186550158 12.011237844824789 16.184304714202881 12.111135870218275 15.225857734680174 19.629445120692253 42.11043281853199 8.9709770381450635 102.2778579890728 151.4833173006773 87.652428030967712 14.919060409069061 10.102256491780279 16.87034510076046
leaf_count=352 79 51 41 48 76 64 70 58 117 51 61 43 446 63 44 73 118 67 42 79 41 61 91 57 52 119 53 52 49 64 81 83 77 161 58 41 47 68 103 55 47 69 51 67 543 113 42 41 50 67 100 73 87 109 222 48 603 918 539 89 61 101
internal_value=6.96624e-05 0.045685 0.0627968 0.0181373 0.0112619 0.0553482 0.0521801 -0.0198053 0.0586147 -0.00294291 -0.0168952 0.0280738 -0.0216162 -0.020271 0.064924 0.0604656 0.0053495 0.0123938 0.0632688 0.0945082 -0.0224707 -0.0213322 0.0113327 0.081648 0.0505599 0.0460632 -0.000320948 -0.0229506 -0.0339578 -0.000172796 -0.00962073 0.0775807 0.0506601 -0.0203805 -4.72644e-05 0.00342777 -0.00251333 -0.00999441 0.000900124 0.00732279 0.00236604 -0.0270896 -0.0216388 0.00395957 -0.0259019 -0.0263498 -0.0352747 -0.00837059 -0.0109053 -0.0195306 -0.0271166 -0.0252963 -0.0212238 -0.0131511 0.00640094 0.0106145 -0.0185366 -0.0237904 -0.029369 -0.0218412 -0.0265348 -0.0259005
internal_weight=1367.22 414.923 255.94 158.983 137.965 207.258 194.162 952.295 153.254 92.3533 46.7055 40.9075 859.942 782.841 126.247 108.844 119.963 25.1658 21.0177 48.6823 705.099 641.52 45.6478 25.9986 68.9424 55.5548 77.7418 596.188 63.579 95.2137 28.9727 39.9015 46.1518 318.673 45.3318 38.0255 27.6812 19.2317 27.7289 39.8763 27.8034 35.991 271.429 66.241 277.515 267.073 77.1011 37.8655 30.5254 20.8668 232.319 128.482 34.7535 47.2439 53.8541 18.0702 111.159 160.271 103.837 24.4588 116.371 106.269
internal_count=7496 1834 1037 797 707 860 809 5662 635 522 277 174 5140 4652 518 448 628 110 90 177 4228 3827 245 98 292 240 424 3572 401 510 157 156 196 1894 255 214 156 109 154 213 150 216 1624 353 1678 1617 488 211 170 117 1417 778 200 270 286 95 654 970 639 147 705 644
is_linear=0
shrinkage=0.05


Tree=12
num_leaves=63
num_cat=0
split_feature=3 3 3 5 5 12 12 6 4 4 4 5 5 3 5 0 4 5 5 12 0 5 5 5 5 5 12 5 0 6 0 6 6 6 6 6 6 3 0 6 3 0 5 5 6 5 5 6 0 5 0 0 0 0 6 6 0 0 0 6 0 5
split_gain=524.317 53.9479 15.4999 14.6169 12.9102 12.3283 9.37328 8.40273 7.37567 6.45088 6.36845 20.6715 8.79104 4.69587 3.83368 3.82381 3.79043 6.49208 5.94439 3.31128 2.8272 3.05345 2.56976 2.35882 2.07194 2.01885 1.94716 1.56314 1.53081 1.39999 1.37204 1.35154 1.28093 2.20897 2.34844 0.992991 1.04175 1.33562 0.944066 0.919594 0.828708 0.766311 0.763647 0.744301 0.720197 0.701658 0.696804 0.589757 0.569371 0.543901 0.458038 0.455683 0.388255 0.346914 0.336453 0.720348 0.33538 0.33173 0.313926 0.30239 0.400285 0.298571
threshold=1.5000000000000002 2.5000000000000004 1.0000000180025095e-35 1.0000000180025095e-35 -1.0000000180025095e-35 1.0000000180025095e-35 1.0000000180025095e-35 10.500000000000002 -1.0000000180025095e-35 1.5000000000000002 1.0000000180025095e-35 1.0000000180025095e-35 1.5000000000000002 3.5000000000000004 1.0000000180025095e-35 2.5000000000000004 -1.0000000180025095e-35 -1.0000000180025095e-35 -1.4999999999999998 1.0000000180025095e-35 2.5000000000000004 14.500000000000002 5.5000000000000009 -3.4999999999999996 5.5000000000000009 -12.499999999999998 1.0000000180025095e-35 2.5000000000000004 3.5000000000000004 3.5000000000000004 2.5000000000000004 9.5000000000000018 10.500000000000002 9.5000000000000018 1.5000000000000002 6.5000000000000009 9.5000000000000018 5.5000000000000009 2.5000000000000004 9.5000000000000018 4.5000000000000009 3.5000000000000004 1.0000000180025095e-35 -8.4999999999999982 10.500000000000002 -13.499999999999998 -5.4999999999999991 8.5000000000000018 2.5000000000000004 26.500000000000004 1.5000000000000002 3.5000000000000004 3.5000000000000004 2.5000000000000004 9.5000000000000018 8.5000000000000018 2.5000000000000004 2.5000000000000004 3.5000000000000004 10.500000000000002 3.5000000000000004 16.500000000000004
decision_type=2 2 2 2 2 2 2 2 2 2 2 2 2 2 2 2 2 2 2 2 2 2 2 2 2 2 2 2 2 2 2 2 2 2 2 2 2 2 2 2 2 2 2 2 2 2 2 2 2 2 2 2 2 2 2 2 2 2 2 2 2 2
left_child=2 3 10 4 -2 7 8 13 -4 14 11 16 -12 29 25 24 18 23 -1 32 22 -22 -13 43 -16 51 54 35 48 -3 -5 47 33 34 -6 -15 40 -38 -7 -31 -37 -9 -40 45 53 -18 -33 -27 -8 -23 -36 -10 -35 -28 55 -19 -41 -52 -57 60 -48 -17
right_child=1 5 6 30 19 38 28 41 9 -11 12 20 -14 27 15 61 17 26 -20 -21 21 49 -24 -25 -26 31 44 -29 -30 39 -32 46 -34 52 50 36 37 -39 42 56 -42 -43 -44 -45 -46 -47 59 -49 -50 -51 57 -53 -54 -55 -56 58 -58 -59 -60 -61 -62 -63
leaf_value=0.037093703132207945 -0.051129351105423541 -0.058152563874952115 -0.030736032645487511 -0.063200918366116909 -0.01993596397156544 -0.081848477904352845 -0.0097663779628101993 -0.019006149640309472 -0.0059657080516821752 -0.025404939754802569 -0.0060785729138682042 0.0021957960834089458 0.038113981766492895 -0.065906479489216949 0.006942831577287447 0.0091843711110360243 0.012134850097222441 0.023507984738021591 0.0017762640423170343 -0.031737595422647147 -0.017630493937073444 0.022450840477783385 -0.028801058346387378 -0.01621281928413652 -0.021730071903660948 0.01879889111294589 0.014737069430550954 -0.070046202010313738 -0.022305956529221852 -0.034912428383900851 -0.042193230847400877 0.025738155525917961 0.0037745553308070681 -0.014492976463590719 -0.0047486908236391654 -0.037025973871779604 -0.061674240251207935 -0.046433800286106337 -0.0636131601139103 -0.041088420558363717 -0.054288655408567678 -0.033181764533291164 -0.077734879991877046 0.019702525193364434 0.022498761408339413 -0.0021637447060988647 0.01405615098014882 0.025522155672038263 0.0041241373179449611 0.0060320771025815963 0.010895840233259738 0.0087518668501482474 -0.022922429107502171 0.0039436632326830317 0.022625336997893979 0.032718300963747143 -0.049344199383054281 0.0004515982703764408 0.024905101381473886 0.017493579595586582 0.0077690172771591659 0.020014022032842797
leaf_weight=80.251467302441597 23.064152657985687 14.407524228096007 9.5719631463289243 16.092510849237442 17.103547364473343 21.069520950317383 17.114284068346024 16.859369933605194 10.508709967136383 10.32306496798992 12.748875364661215 9.9791462272405642 95.93202269077301 19.777318596839905 9.9998548030853289 10.696514874696733 20.341153502464291 145.45940899848938 13.991511806845663 17.561203569173813 11.634169086813928 10.450122833251955 20.264921888709068 10.399040326476095 17.030977696180344 116.83192883431911 13.041990503668787 22.795636624097824 17.714801028370857 33.795378357172012 15.032728284597399 12.605341225862501 17.877123117446899 45.574950933456421 17.825702205300331 14.237277865409853 46.458036541938782 20.817289471626282 25.909016221761703 22.485290616750717 13.586899966001509 21.940898925065994 15.183361023664473 14.092943593859671 13.377118483185766 14.838793054223062 97.250415399670601 45.251018151640892 12.966819047927858 9.750310003757475 14.286415711045267 10.528601244091988 19.507167100906372 17.346307158470154 242.27042937278748 38.468971833586693 27.161453425884247 16.251004338264465 19.30905345082283 37.804928302764893 34.2264384329319 15.714641496539114
leaf_count=378 76 44 38 50 61 60 67 56 44 41 56 40 452 59 41 44 85 655 61 61 46 44 79 44 66 511 55 68 70 112 48 53 69 169 69 46 142 63 75 71 42 72 43 62 58 62 417 199 51 40 57 43 72 74 1082 176 85 61 89 162 146 63
internal_value=5.82662e-05 -0.0405469 0.0174443 -0.0213045 -0.0160772 -0.0531381 0.01038 -0.0485822 0.0126726 0.0136416 0.0216635 0.0199273 0.0329299 -0.052134 0.0146049 0.00209754 0.0225867 0.0209963 0.0318504 -0.0112067 -0.00762623 0.0027741 -0.0185735 0.00542631 -0.0111227 0.0164362 0.0228952 -0.0580861 -0.0106455 -0.0437596 -0.0530547 0.0173558 -0.00877753 -0.0104964 -0.00401155 -0.0557128 -0.0535929 -0.0569583 -0.0732432 -0.0412744 -0.0454556 -0.0270222 -0.068831 0.00999325 0.0128315 0.00610375 0.0143971 0.0206759 -0.00377871 0.0145259 0.00162009 0.00140004 -0.0170195 0.00857596 0.0238838 0.0253841 -0.0456051 0.00533776 0.0301072 0.0135526 0.0124195 0.015628
internal_weight=1856.75 556.661 1300.09 220.177 189.051 336.484 486.14 274.322 438.344 428.772 813.948 705.267 108.681 235.522 418.449 53.442 643.188 548.945 94.243 165.987 62.0787 31.8346 30.2441 59.6719 27.0308 365.007 489.273 137.672 47.7959 97.8496 31.1252 343.97 148.426 130.549 65.4667 114.877 95.0995 67.2753 62.1619 83.4421 27.8242 38.8003 41.0924 49.2729 43.7654 35.1799 181.887 162.083 30.0811 20.2004 48.3631 21.0373 65.0821 30.3883 445.508 203.237 49.6467 30.5374 57.778 169.282 131.477 26.4112
internal_count=7525 1831 5694 793 695 1038 2056 860 1868 1830 3638 3130 508 732 1789 214 2881 2442 439 619 249 130 119 253 107 1575 2189 420 188 312 98 1488 558 489 248 352 293 205 178 268 88 128 118 209 187 147 778 710 118 84 187 87 241 129 2002 920 156 118 265 725 563 107
is_linear=0
shrinkage=0.05


Tree=13
num_leaves=63
num_cat=0
split_feature=3 3 6 5 3 13 6 6 13 5 5 3 0 12 5 0 6 6 12 5 5 0 5 5 13 0 13 12 5 6 0 6 3 5 5 3 6 6 5 5 5 5 0 6 6 6 5 0 5 5 6 0 5 6 5 6 6 5 5 5 5 3
split_gain=69.0805 8.20065 7.17076 8.0917 6.6438 5.53666 6.8591 4.03945 4.61388 4.10652 3.14616 4.64239 2.6894 2.79032 2.42567 2.13555 2.08462 2.07257 2.49643 2.18922 2.03122 1.78335 1.69625 1.50022 1.45831 1.36275 1.28075 5.41716 7.71576 5.02306 3.84097 1.12768 0.970156 0.861898 1.25555 0.851264 0.839689 0.8363 3.49518 1.0379 0.781245 0.7479 0.741521 0.711362 1.56549 0.833758 0.667298 0.571754 0.411377 0.486374 0.405506 0.395367 0.391236 0.329547 0.668338 0.325521 0.301867 0.291965 0.285997 0.485967 0.376259 0.263311
threshold=1.5000000000000002 1.0000000180025095e-35 8.5000000000000018 7.5000000000000009 5.5000000000000009 1.0000000180025095e-35 10.500000000000002 9.5000000000000018 1.0000000180025095e-35 -11.499999999999998 1.0000000180025095e-35 2.5000000000000004 3.5000000000000004 1.0000000180025095e-35 -1.0000000180025095e-35 3.5000000000000004 4.5000000000000009 8.5000000000000018 1.0000000180025095e-35 1.0000000180025095e-35 4.5000000000000009 3.5000000000000004 -3.4999999999999996 1.0000000180025095e-35 1.0000000180025095e-35 3.5000000000000004 1.0000000180025095e-35 1.0000000180025095e-35 13.500000000000002 10.500000000000002 2.5000000000000004 1.5000000000000002 2.5000000000000004 -3.4999999999999996 -11.499999999999998 3.5000000000000004 9.5000000000000018 8.5000000000000018 15.500000000000002 12.500000000000002 5.5000000000000009 -1.0000000180025095e-35 2.5000000000000004 7.5000000000000009 1.5000000000000002 1.0000000180025095e-35 16.500000000000004 2.5000000000000004 9.5000000000000018 1.0000000180025095e-35 10.500000000000002 2.5000000000000004 20.500000000000004 8.5000000000000018 1.0000000180025095e-35 4.5000000000000009 9.5000000000000018 -17.499999999999996 -17.499999999999996 -11.499999999999998 -7.4999999999999991 3.5000000000000004
decision_type=2 2 2 2 2 2 2 2 2 2 2 2 2 2 2 2 2 2 2 2 2 2 2 2 2 2 2 2 2 2 2 2 2 2 2 2 2 2 2 2 2 2 2 2 2 2 2 2 2 2 2 2 2 2 2 2 2 2 2 2 2 2
left_child=1 15 3 10 7 12 20 8 21 -9 11 -2 33 23 -11 22 31 -17 19 57 25 -4 56 -14 37 36 27 28 32 30 -28 -13 -16 34 -3 -18 -7 38 43 40 41 -39 -6 44 45 -24 48 -34 49 51 -43 -35 53 -26 -55 -46 -1 -19 -58 -60 -61 -49
right_child=2 5 4 -5 42 6 -8 9 -10 14 -12 16 13 -15 26 17 35 18 -20 -21 -22 -23 24 -25 52 -27 29 -29 -30 -31 -32 -33 47 46 -36 -37 -38 39 -40 -41 -42 50 -44 -45 55 -47 -48 61 -50 -51 -52 -53 -54 54 -56 -57 58 -59 59 60 -62 -63
leaf_value=-0.03534580447830913 0.020424322634084335 -0.0012250280156602131 -0.021770138047622515 0.096391633510611779 -0.022976501089789089 0.0018227380126198359 -0.035619393919251049 0.0635790035425364 0.03424731568311961 -0.0032831748113228768 -0.0019655759580087906 0.018823122556379163 0.0048911029299132458 0.039822612954431062 0.017094098923907813 0.01787441493466049 0.050939960507284381 0.0037412711924431187 0.012893785927173615 -0.035492929759711599 0.056151074437555321 0.0075312051530456794 -0.014196358765268494 -0.025348588107628828 0.0018853380181474368 0.041871989691502874 0.022293170536752092 0.065278257248410604 -0.036383351032275267 -0.0075924868254092174 0.067043650933721652 0.05073226250151839 0.020977418682125014 -0.010681525442559063 -0.035562668296833667 0.074990276773454295 0.023540402514361559 0.001458779157337928 0.035644430461063685 -0.035388494233829594 0.0036655805870362428 -0.022099873513620756 -0.0015538607910197217 -0.0024691701825967282 -0.035358937696129862 0.0086008825818014705 0.011982791076334721 0.028689915379810832 -0.023757983648122538 0.0060604590481684274 -0.011447883153304472 -0.0032664821292506339 0.0075059101112872522 -0.0064836040885053042 -0.026296314441137027 -0.022917099221939505 -0.03544906065401239 -0.010633541687131707 -0.0096957065436669328 -0.035393936910835339 -0.017821122237388923 0.039903948917282273
leaf_weight=8.8400173857808131 21.985039100050926 4.3571505695581436 10.537802882492542 5.5833532959222785 7.5984205380082157 7.9729167893529018 5.2142763882875434 7.0006997212767592 9.8288487270474452 7.5435662642121306 5.7026545330882064 5.3726480156183243 30.75821241736412 5.2781847938895217 29.101521342992783 7.4720245450735083 6.8084228932857522 3.8243387043476096 10.311476103961466 9.6954150423407537 4.8682357221841803 10.237752474844456 35.197951585054398 4.7325576916337004 6.6582578048109999 5.7638519927859297 8.4676497802138382 6.841685250401496 5.8328343480825415 5.2177160009741774 11.055179946124552 5.7131272181868553 12.164802581071852 66.222219429910183 6.8432772979140264 8.005413666367529 10.07485019415617 4.051421530544757 3.5040757954120627 10.068778336048124 3.8316637873649588 63.622393101453781 8.624044328927992 9.083436504006384 9.3856723830103892 4.5264198109507552 4.1713184192776671 9.9327718839049357 4.1924929842352858 5.9730909168720236 10.394290648400782 24.675252132117748 4.62299820780754 20.561636082828048 5.367601014673709 11.951414674520491 4.6978060528636005 46.26940280944109 5.8134107738733354 6.5730282068252617 5.6769158542156113 11.066980853676794
leaf_count=110 190 48 103 35 71 83 58 61 75 65 43 40 329 52 269 82 49 45 116 114 44 89 409 48 73 53 67 52 51 46 84 45 101 744 78 55 98 46 38 123 45 753 76 106 116 51 42 79 46 63 121 270 50 225 60 141 56 542 68 80 68 85
internal_value=0.000869429 -0.00935375 0.0242243 0.0391094 0.0187555 -0.00119698 0.0171319 0.0221543 0.00602217 0.0264766 0.033141 0.0373219 -0.0051488 0.00590324 0.0240542 -0.0143497 0.0516656 -0.00715853 -0.00982679 -0.0137453 0.0267226 -0.00733106 -0.0167292 0.000858756 -0.0150504 0.020706 0.026123 0.0228665 0.0186056 0.0359869 0.047634 0.0352677 0.0237567 -0.00901861 -0.0222048 0.0639368 0.0139462 -0.01706 -0.0130896 -0.0202396 -0.0183771 -0.019459 -0.011588 -0.0155241 -0.0174662 -0.0115987 -0.00761516 0.0296031 -0.00842406 -0.00776042 -0.020604 -0.00866862 -0.00610604 -0.00803709 -0.010585 -0.02839 -0.0275043 -0.00953612 -0.0244589 -0.0216006 -0.0272503 0.0345998
internal_weight=723.323 503.1 220.223 59.1707 161.052 191.098 33.8941 144.83 30.6044 114.225 53.5873 47.8847 157.204 40.769 107.225 312.002 25.8996 77.5727 70.1006 59.7892 28.6799 20.7756 234.429 35.4908 202.828 23.8116 99.6811 74.9406 68.0989 24.7405 19.5228 11.0858 62.2661 116.435 11.2004 14.8138 18.0478 165.618 73.649 91.9685 81.8998 78.0681 16.2225 70.1449 61.0615 39.7244 105.234 33.1646 101.063 96.8706 74.0167 90.8975 37.2105 32.5875 25.9292 21.3371 31.6012 50.0937 22.7612 18.0634 12.2499 20.9998
internal_count=7525 5694 1831 457 1374 2056 336 1227 267 960 422 379 1720 429 899 3638 189 899 817 701 278 192 2739 377 2357 234 834 637 585 197 151 85 534 1291 126 104 181 1949 861 1088 965 920 147 823 717 460 1165 265 1123 1077 874 1014 408 358 285 257 382 587 272 216 148 164
is_linear=0
shrinkage=0.05


Tree=14
num_leaves=63
num_cat=0
split_feature=3 3 12 5 12 5 5 6 13 0 6 5 0 6 13 5 3 0 5 3 6 3 0 5 0 5 0 0 6 6 6 6 6 6 6 3 6 5 5 5 5 5 5 5 5 6 5 6 0 5 5 5 6 6 0 5 5 5 13 5 0 6
split_gain=412.305 61.8542 20.4542 11.9986 8.72158 7.80391 10.4838 7.40996 6.36268 9.76988 5.76246 10.8597 9.80057 6.7 4.54114 4.40844 4.24383 3.45934 3.35226 3.11145 3.06089 2.99877 3.00823 2.87567 2.76313 2.71589 2.64133 1.93335 3.27713 1.4718 0.98265 0.820541 1.56898 1.29438 0.755595 0.747986 0.739112 0.611687 0.925241 1.20199 0.563416 1.24287 0.621171 0.554249 1.21102 1.48497 0.545861 0.509227 0.451224 0.450662 0.946063 0.434919 0.471533 0.770177 0.362692 0.91635 0.356935 1.01307 0.5389 0.873505 0.504061 0.965872
threshold=1.5000000000000002 2.5000000000000004 1.0000000180025095e-35 1.0000000180025095e-35 1.0000000180025095e-35 1.0000000180025095e-35 -1.0000000180025095e-35 1.5000000000000002 1.0000000180025095e-35 3.5000000000000004 10.500000000000002 -1.0000000180025095e-35 3.5000000000000004 9.5000000000000018 1.0000000180025095e-35 3.5000000000000004 1.0000000180025095e-35 2.5000000000000004 1.0000000180025095e-35 5.5000000000000009 10.500000000000002 3.5000000000000004 2.5000000000000004 -1.0000000180025095e-35 2.5000000000000004 14.500000000000002 2.5000000000000004 2.5000000000000004 9.5000000000000018 6.5000000000000009 9.5000000000000018 9.5000000000000018 3.5000000000000004 10.500000000000002 4.5000000000000009 4.5000000000000009 9.5000000000000018 -17.499999999999996 -5.4999999999999991 -8.4999999999999982 -20.499999999999996 -10.499999999999998 -8.4999999999999982 31.500000000000004 12.500000000000002 8.5000000000000018 -3.4999999999999996 8.5000000000000018 1.5000000000000002 -8.4999999999999982 -14.499999999999998 -1.0000000180025095e-35 10.500000000000002 9.5000000000000018 2.5000000000000004 15.500000000000002 26.500000000000004 18.500000000000004 1.0000000180025095e-35 8.5000000000000018 2.5000000000000004 10.500000000000002
decision_type=2 2 2 2 2 2 2 2 2 2 2 2 2 2 2 2 2 2 2 2 2 2 2 2 2 2 2 2 2 2 2 2 2 2 2 2 2 2 2 2 2 2 2 2 2 2 2 2 2 2 2 2 2 2 2 2 2 2 2 2 2 2
left_child=4 5 3 7 16 6 -2 -3 15 20 11 -9 -12 24 31 51 36 -5 23 27 26 -15 -23 37 34 -7 -10 -4 -29 -20 -25 32 -8 -33 -13 -24 43 -18 39 -39 -38 -42 -43 44 49 -46 -44 -34 -48 50 -1 -6 53 -53 -31 -56 57 58 59 -50 -60 -62
right_child=1 2 19 17 8 25 14 10 9 -11 12 13 -14 21 -16 -17 18 -19 29 -21 -22 22 35 30 -26 -27 -28 28 -30 54 -32 33 47 -35 -36 -37 40 38 -40 -41 41 42 46 -45 45 -47 48 -49 56 -51 -52 52 -54 -55 55 -57 -58 -59 60 -61 61 -63
leaf_value=-0.030994056331363547 0.04598541613764532 0.081891254222538568 0.090542109526583855 0.086372106384100422 -0.038021072567482592 0.055548936588727185 0.0071407078219854481 0.079792980511964012 0.0040543970627509359 0.06110687973268282 -0.015727781685741859 0.028343270844553483 0.044686607340305301 0.0347869600469458 0.023985020869831935 0.0092921366218500657 0.0052256772326917398 0.054962478904775694 0.015933344256891472 0.099887638798443756 0.022613557477037322 0.066923635828651282 0.051764811656650415 -0.023913747246323669 0.043678380500049442 0.021828288688959988 -0.026975873257384177 0.083936763214016635 0.047244136576516951 -0.0012831601868060598 -0.017371125985045248 0.0086213836829785069 -0.019583353243195073 -0.0099953814368522222 0.012037351375115718 0.033670334104446559 -0.0093681954553651182 -0.0068331463289237164 0.0024263911470336491 -0.031576475738665392 -0.035081070757446285 -0.0079568165926347748 -0.03113194242596878 -0.038004958626923852 -0.025777708291258791 0.0058193066038643619 -0.010298222559439338 -0.0053463028830481492 -0.023431332528369153 -0.026765356094724409 -0.0056161583978998342 -0.031316481615606247 -0.032749240728258723 -0.010595249620786715 0.0023604547914921866 -0.019726799301979694 -0.01095351164087615 -0.037999158596520664 -0.02399039769520454 -0.010679949801195169 -0.001912377273070252 -0.024716009095965458
