tree
version=v4
num_class=4
num_tree_per_iteration=4
label_index=0
max_feature_idx=16
objective=multiclass num_class:4
feature_names=Column_0 Column_1 Column_2 Column_3 Column_4 Column_5 Column_6 Column_7 Column_8 Column_9 Column_10 Column_11 Column_12 Column_13 Column_14 Column_15 Column_16
feature_infos=[1:4] [0:720] [0:4] [0:7] [-19:2] [-19:2] none [0:1] [0:1] none [0:2] none [0:12] [0:45] [0:86] [0:2] [0:6]
tree_sizes=660 242 747 650 875 224 766 669 673 224 667 673 675 225 665 673 675 225 772 769 670 225 667 672 669 225 769 670 668 225 771 774 667 225 666 773 674 225 669 773 673 225 774 670 666 225 665 778 668 225 665 565 772 225 669 773 673 225 776 773 667 225 666 568 773 225 672 773

Tree=0
num_leaves=5
num_cat=0
split_feature=5 7 1 13
split_gain=6.01534 7.71322 10.5777 2.83823
threshold=-6.4999999999999991 1.0000000180025095e-35 192.00000000000003 27.500000000000004
decision_type=2 2 2 2
left_child=1 2 -1 -2
right_child=3 -3 -4 -5
leaf_value=-0.46153632330666527 -0.46621942981841508 -0.45833086365011855 -0.5185577845284024 -0.43609944990310101
leaf_weight=13.43194469809532 19.366990029811859 22.490698099136353 20.616473257541656 13.119573891162871
leaf_count=43 62 72 66 42
internal_value=-0.471202 -0.481054 -0.496063 -0.454056
internal_weight=89.0257 56.5391 34.0484 32.4866
internal_count=285 181 109 104
is_linear=0
shrinkage=1


Tree=1
num_leaves=1
num_cat=0
split_feature=
split_gain=
threshold=
decision_type=
left_child=
right_child=
leaf_value=-34.538776391283193
leaf_weight=
leaf_count=323
internal_value=
internal_weight=
internal_count=
is_linear=0
shrinkage=1


Tree=2
num_leaves=6
num_cat=0
split_feature=4 1 1 1 7
split_gain=5.12505 8.43748 6.87329 5.13596 4.53334
threshold=-10.499999999999998 294.50000000000006 165.50000000000003 536.50000000000011 1.0000000180025095e-35
decision_type=2 2 2 2 2
left_child=4 2 -2 -3 -1
right_child=1 3 -4 -5 -6
leaf_value=-1.2963601937145612 -1.3472153548426187 -1.3824404840545579 -1.291555944552687 -1.3375457115295373 -1.3386201163421019
leaf_weight=13.961218178272247 11.634348481893541 14.478300333023073 10.60018417239189 11.375807404518126 11.634348481893539
leaf_count=54 45 56 41 44 45
internal_value=-1.33364 -1.34326 -1.32068 -1.36269 -1.31557
internal_weight=73.6842 48.0886 22.2345 25.8541 25.5956
internal_count=285 186 86 100 99
is_linear=0
shrinkage=1


Tree=3
num_leaves=5
num_cat=0
split_feature=5 5 4 5
split_gain=5.65513 13.5353 3.12084 1.80769
threshold=-14.999999999999998 -10.499999999999998 -5.4999999999999991 -6.4999999999999991
decision_type=2 2 2 2
left_child=-1 -2 3 -3
right_child=1 2 -4 -5
leaf_value=-2.2300261799090109 -2.1130518576100825 -2.2300261799090109 -2.1780814972628022 -2.1933074237818695
leaf_weight=7.9226294159889212 5.6778844147920635 7.9226294159889239 10.299418240785597 5.8099282383918762
leaf_count=60 43 60 78 44
internal_value=-2.19249 -2.18248 -2.19889 -2.21449
internal_weight=37.6325 29.7099 24.032 13.7326
internal_count=285 225 182 104
is_linear=0
shrinkage=1


Tree=4
num_leaves=7
num_cat=0
split_feature=4 4 1 4 1 13
split_gain=5.29051 5.96361 4.3471 8.11883 0.356682 0.145856
threshold=-8.4999999999999982 -13.499999999999998 274.50000000000006 -6.4999999999999991 536.50000000000011 25.500000000000004
decision_type=2 2 2 2 2 2
left_child=1 5 3 -2 -4 -1
right_child=2 -3 4 -5 -6 -7
leaf_value=-0.0032815332658473876 0.024757603401822356 -0.040943802752664051 0.031494765023757136 -0.031197080415044903 0.019581216152991049 0.0043449419629200733
leaf_weight=12.553114980459215 12.795924723148346 13.248641878366469 12.673843801021578 13.139698922634125 12.458383560180662 12.524034261703489
leaf_count=40 41 42 41 42 40 40
internal_value=0.000232222 -0.0138086 0.0107697 -0.00359058 0.0255891 0.000527282
internal_weight=89.3936 38.3258 51.0679 25.9356 25.1322 25.0771
internal_count=286 122 164 83 81 80
is_linear=0
shrinkage=0.05


Tree=5
num_leaves=1
num_cat=0
split_feature=
split_gain=
threshold=
decision_type=
left_child=
right_child=
leaf_value=0
leaf_weight=
leaf_count=323
internal_value=
internal_weight=
internal_count=
is_linear=0
shrinkage=1


Tree=6
num_leaves=6
num_cat=0
split_feature=4 1 1 1 14
split_gain=8.94743 5.32779 6.91425 4.76389 2.72662
threshold=-10.499999999999998 294.50000000000006 165.50000000000003 536.50000000000011 25.500000000000004
decision_type=2 2 2 2 2
left_child=4 2 -2 -3 -1
right_child=1 3 -4 -5 -6
leaf_value=0.0075526652894501653 -0.024602498403742654 -0.050313629195861923 0.030030919173122568 -0.0064222886796503195 0.04019765735814787
leaf_weight=14.431173980236055 11.525300890207292 13.659348845481874 11.640045881271361 11.293770372867582 11.48828089237213
leaf_count=55 45 54 44 44 44
internal_value=-0.00166101 -0.014418 0.00284952 -0.0304484 0.0220219
internal_weight=74.0379 48.1185 23.1653 24.9531 25.9195
internal_count=286 187 89 98 99
is_linear=0
shrinkage=0.05


Tree=7
num_leaves=5
num_cat=0
split_feature=5 5 1 13
split_gain=5.79164 10.8422 3.64425 2.05491
threshold=-14.999999999999998 -10.499999999999998 504.00000000000006 25.500000000000004
decision_type=2 2 2 2
left_child=-1 -2 3 -3
right_child=1 2 -4 -5
leaf_value=-0.035632300508068711 0.072231416515727828 0.024717703563030099 -0.034498073019294216 -0.0098243323787747579
leaf_weight=7.817555531859397 6.0927436500787762 9.7172289788723045 6.4799009412527075 7.7313470095396033
leaf_count=61 43 74 49 59
internal_value=0.00270141 0.0126836 -0.00247871 0.00941236
internal_weight=37.8388 30.0212 23.9285 17.4486
internal_count=286 225 182 133
is_linear=0
shrinkage=0.05


Tree=8
num_leaves=5
num_cat=0
split_feature=5 7 1 5
split_gain=4.93048 6.49448 5.60256 1.78859
threshold=-6.4999999999999991 1.0000000180025095e-35 192.00000000000003 -4.4999999999999991
decision_type=2 2 2 2
left_child=1 2 -1 -2
right_child=3 -3 -4 -5
leaf_value=0.0024812787084443136 0.025448435228171518 0.011652605058183297 -0.039515098822770711 0.0027746284587558305
leaf_weight=12.890728443861006 17.88268193602562 21.808629333972931 20.684373021125793 16.933718889951706
leaf_count=41 58 70 65 55
internal_value=-0.000323294 -0.00959185 -0.0233911 0.0144205
internal_weight=90.2001 55.3837 33.5751 34.8164
internal_count=289 176 106 113
is_linear=0
shrinkage=0.05


Tree=9
num_leaves=1
num_cat=0
split_feature=
split_gain=
threshold=
decision_type=
left_child=
right_child=
leaf_value=0
leaf_weight=
leaf_count=323
internal_value=
internal_weight=
internal_count=
is_linear=0
shrinkage=1


Tree=10
num_leaves=5
num_cat=0
split_feature=1 1 1 4
split_gain=6.04264 7.59094 12.3957 1.69128
threshold=567.00000000000011 286.50000000000006 124.00000000000001 -9.4999999999999982
decision_type=2 2 2 2
left_child=1 2 -1 -3
right_child=-2 3 -4 -5
leaf_value=-0.024912958637289734 0.025563294697348277 -0.016222730828661071 0.036942049202460255 -0.04182506976393132
leaf_weight=15.582383424043654 16.324558287858963 12.827519178390505 16.86672830581665 12.975513294339178
leaf_count=61 63 49 63 53
internal_value=-0.00132215 -0.00885651 0.00723866 -0.0290973
internal_weight=74.5767 58.2521 32.4491 25.803
internal_count=289 226 124 102
is_linear=0
shrinkage=0.05


Tree=11
num_leaves=5
num_cat=0
split_feature=5 5 12 4
split_gain=4.60498 7.34977 3.40066 1.47408
threshold=-14.999999999999998 -10.499999999999998 5.5000000000000009 -5.4999999999999991
decision_type=2 2 2 2
left_child=-1 -2 -3 -4
right_child=1 2 3 -5
leaf_value=-0.034364336681845693 0.059449194370726412 0.023713908799968757 -0.029671370046191789 0.00045408862898448825
leaf_weight=6.6900359764695159 6.3373652696609524 9.1017882227897662 8.0432045310735756 8.2009032219648308
leaf_count=54 42 69 62 62
internal_value=0.00332947 0.0112887 -0.000753179 -0.0144624
internal_weight=38.3733 31.6833 25.3459 16.2441
internal_count=289 235 193 124
is_linear=0
shrinkage=0.05


Tree=12
num_leaves=5
num_cat=0
split_feature=12 5 7 4
split_gain=3.62262 6.71192 9.40168 0.490286
threshold=5.5000000000000009 -6.4999999999999991 1.0000000180025095e-35 -8.4999999999999982
decision_type=2 2 2 2
left_child=3 2 -2 -1
right_child=1 -3 -4 -5
leaf_value=-0.022621467195652216 -0.029051713934620218 0.028068984850986873 0.022772276512159701 -0.0097823013559640865
leaf_weight=13.015298157930376 20.751871317625046 21.62188583612442 15.133761286735533 17.344428569078445
leaf_count=41 65 71 49 56
internal_value=-0.00131376 0.00606281 -0.0071964 -0.0152865
internal_weight=87.8672 57.5075 35.8856 30.3597
internal_count=282 185 114 97
is_linear=0
shrinkage=0.05


Tree=13
num_leaves=1
num_cat=0
split_feature=
split_gain=
threshold=
decision_type=
left_child=
right_child=
leaf_value=0
leaf_weight=
leaf_count=323
internal_value=
internal_weight=
internal_count=
is_linear=0
shrinkage=1


Tree=14
num_leaves=5
num_cat=0
split_feature=1 1 1 4
split_gain=5.53506 9.14694 10.6189 3.20891
threshold=567.00000000000011 286.50000000000006 185.00000000000003 -10.499999999999998
decision_type=2 2 2 2
left_child=1 2 -1 -3
right_child=-2 3 -4 -5
leaf_value=-0.0098202498034316472 0.027494971416023486 -0.0059971181309827976 0.05054906023869378 -0.042631616076098042
leaf_weight=19.625112071633342 16.491711050271988 9.9387920200824755 11.583906799554823 14.997147187590597
leaf_count=77 63 38 42 62
internal_value=0.0020281 -0.0054524 0.0125871 -0.0280301
internal_weight=72.6367 56.145 31.209 24.9359
internal_count=282 219 119 100
is_linear=0
shrinkage=0.05


Tree=15
num_leaves=5
num_cat=0
split_feature=5 5 12 15
split_gain=4.23985 7.07866 2.31479 2.30499
threshold=-14.999999999999998 -7.4999999999999991 6.5000000000000009 1.0000000180025095e-35
decision_type=2 2 2 2
left_child=-1 3 -3 -2
right_child=1 2 -4 -5
leaf_value=-0.034889529399106924 0.058669656755373646 0.002041106953245823 -0.035057168894692042 0.015970306228378802
leaf_weight=7.3507138267159453 5.908500589430334 10.167992740869524 7.1696881875395766 6.7957520708441734
leaf_count=61 41 77 56 47
internal_value=-0.000852521 0.00747572 -0.0133002 0.0358289
internal_weight=37.3926 30.0419 17.3377 12.7043
internal_count=282 221 133 88
is_linear=0
shrinkage=0.05


Tree=16
num_leaves=5
num_cat=0
split_feature=12 5 7 1
split_gain=5.39823 4.85753 7.59281 2.51928
threshold=5.5000000000000009 -6.4999999999999991 1.0000000180025095e-35 240.00000000000003
decision_type=2 2 2 2
left_child=3 2 -2 -1
right_child=1 -3 -4 -5
leaf_value=-0.0017013992040186303 -0.022630085950940543 0.025314959685222672 0.025226156260084287 -0.030916914877500846
leaf_weight=12.852762013673784 21.501008212566376 23.219271749258041 13.487539708614348 17.325595915317535
leaf_count=41 67 77 44 55
internal_value=-0.00131307 0.00758427 -0.00418225 -0.0184742
internal_weight=88.3862 58.2078 34.9885 30.1784
internal_count=284 188 111 96
is_linear=0
shrinkage=0.05


Tree=17
num_leaves=1
num_cat=0
split_feature=
split_gain=
threshold=
decision_type=
left_child=
right_child=
leaf_value=0
leaf_weight=
leaf_count=323
internal_value=
internal_weight=
internal_count=
is_linear=0
shrinkage=1


Tree=18
num_leaves=6
num_cat=0
split_feature=1 1 1 4 5
split_gain=5.33545 5.88771 11.1375 3.9376 1.33493
threshold=567.00000000000011 286.50000000000006 185.00000000000003 -10.499999999999998 -7.4999999999999991
decision_type=2 2 2 2 2
left_child=1 2 4 -3 -1
right_child=-2 3 -4 -5 -6
leaf_value=-0.027501560043978066 0.026359950691208951 -0.0011053383094045248 0.045144304748850179 -0.04189129579215696 -0.0023493021620950871
leaf_weight=10.617494434118269 15.365489542484282 9.9515653848648089 12.114247441291807 14.598762422800062 10.484445273876192
leaf_count=41 58 38 43 62 42
internal_value=0.000174111 -0.00679114 0.00693218 -0.0253586 -0.0150047
internal_weight=73.132 57.7665 33.2162 24.5503 21.1019
internal_count=284 226 126 100 83
is_linear=0
shrinkage=0.05


Tree=19
num_leaves=6
num_cat=0
split_feature=5 5 1 4 14
split_gain=4.53004 11.272 3.63687 8.32652 1.48863
threshold=-14.999999999999998 -11.499999999999998 504.00000000000006 -5.4999999999999991 25.500000000000004
decision_type=2 2 2 2 2
left_child=-1 -2 3 4 -3
right_child=1 2 -4 -5 -6
leaf_value=-0.034200962614149469 0.076467340113620497 0.00085252552904404677 -0.03476018030075885 0.056370659641477153 -0.033466869672060522
leaf_weight=6.801173284649848 5.4039782881736782 6.9472516700625473 6.6689779460430136 6.0768739283084861 5.79563919454813
leaf_count=58 33 52 51 45 45
internal_value=0.00274115 0.0108741 -0.00303258 0.00821042 -0.0147564
internal_weight=37.6939 30.8927 25.4887 18.8198 12.7429
internal_count=284 226 193 142 97
is_linear=0
shrinkage=0.05


Tree=20
num_leaves=5
num_cat=0
split_feature=5 7 1 1
split_gain=2.4342 5.58482 4.37971 1.7982
threshold=-6.4999999999999991 1.0000000180025095e-35 192.00000000000003 339.50000000000006
decision_type=2 2 2 2
left_child=1 2 -1 -2
right_child=3 -3 -4 -5
leaf_value=0.0020154264220368649 -0.0050135206314059419 0.012726848120103641 -0.035177187908132422 0.019034193150789379
leaf_weight=13.34637677669525 12.357808917760847 21.541841685771942 19.451663374900818 20.95648005604744
leaf_count=42 40 70 60 70
internal_value=-0.000527789 -0.00705185 -0.0200425 0.0101138
internal_weight=87.6542 54.3399 32.798 33.3143
internal_count=282 172 102 110
is_linear=0
shrinkage=0.05


Tree=21
num_leaves=1
num_cat=0
split_feature=
split_gain=
threshold=
decision_type=
left_child=
right_child=
leaf_value=0
leaf_weight=
leaf_count=323
internal_value=
internal_weight=
internal_count=
is_linear=0
shrinkage=1


Tree=22
num_leaves=5
num_cat=0
split_feature=1 1 1 4
split_gain=4.03835 7.0781 7.53836 4.04587
threshold=86.500000000000014 255.00000000000003 567.00000000000011 -10.499999999999998
decision_type=2 2 2 2
left_child=-1 -2 3 -3
right_child=1 2 -4 -5
leaf_value=-0.02764545672515259 0.030738741521799669 0.0025244845851421301 0.021211384508108864 -0.037373762149175135
leaf_weight=11.337203070521353 18.437765181064606 10.201756715774534 15.722104042768477 16.84634226560593
leaf_count=46 67 39 59 71
internal_value=-0.000234859 0.00484225 -0.00632144 -0.0223253
internal_weight=72.5452 61.208 42.7702 27.0481
internal_count=282 236 169 110
is_linear=0
shrinkage=0.05


Tree=23
num_leaves=5
num_cat=0
split_feature=5 5 12 4
split_gain=6.09107 6.83306 3.23083 1.39334
threshold=-14.999999999999998 -11.499999999999998 5.5000000000000009 -5.4999999999999991
decision_type=2 2 2 2
left_child=-1 -2 -3 -4
right_child=1 2 3 -5
leaf_value=-0.041413853956144643 0.060391365731338464 0.023638763455323938 -0.029041183447765673 0.00059451726061701465
leaf_weight=6.7220667451620093 5.7271840572357204 9.0704876407980937 7.694803178310397 8.1848511472344345
leaf_count=59 33 66 61 63
internal_value=0.00169256 0.0111381 -0.000167736 -0.0137661
internal_weight=37.3994 30.6773 24.9501 15.8797
internal_count=282 223 190 124
is_linear=0
shrinkage=0.05


Tree=24
num_leaves=5
num_cat=0
split_feature=0 4 1 1
split_gain=4.15809 6.22549 4.13374 7.06428
threshold=1.5000000000000002 -5.4999999999999991 192.00000000000003 422.00000000000006
decision_type=2 2 2 2
left_child=1 -1 -2 -4
right_child=2 -3 3 -5
leaf_value=0.038460738235103313 0.013086580555167267 -0.0056295829389438352 -0.03854908988293871 0.0030800148127453674
leaf_weight=14.470089942216871 16.097228467464447 17.922738015651703 19.533546537160873 21.307226121425629
leaf_count=48 52 59 61 68
internal_value=-0.000236015 0.0140659 -0.00837255 -0.0168306
internal_weight=89.3308 32.3928 56.938 40.8408
internal_count=288 107 181 129
is_linear=0
shrinkage=0.05


Tree=25
num_leaves=1
num_cat=0
split_feature=
split_gain=
threshold=
decision_type=
left_child=
right_child=
leaf_value=0
leaf_weight=
leaf_count=323
internal_value=
internal_weight=
internal_count=
is_linear=0
shrinkage=1


Tree=26
num_leaves=6
num_cat=0
split_feature=4 1 1 4 13
split_gain=4.71845 4.03848 6.72943 5.17523 1.17457
threshold=-10.499999999999998 294.50000000000006 552.50000000000011 -6.4999999999999991 15.500000000000002
decision_type=2 2 2 2 2
left_child=4 3 -3 -2 -1
right_child=1 2 -4 -5 -6
leaf_value=0.0075360255142998449 -0.015017988989990051 -0.044194545586538049 0.0084831197565499814 0.031365896576421852 0.029277872226493404
leaf_weight=10.799326419830324 12.107367947697639 13.653389647603037 10.904943719506262 11.948140785098076 14.62363627552986
leaf_count=40 46 61 42 45 54
internal_value=0.00258752 -0.00654056 -0.0208034 0.00802044 0.0200422
internal_weight=74.0368 48.6138 24.5583 24.0555 25.423
internal_count=288 194 103 91 94
is_linear=0
shrinkage=0.05


Tree=27
num_leaves=5
num_cat=0
split_feature=5 5 12 4
split_gain=4.1395 5.28572 2.4165 1.45242
threshold=-14.999999999999998 -10.499999999999998 5.5000000000000009 -5.4999999999999991
decision_type=2 2 2 2
left_child=-1 -2 -3 -4
right_child=1 2 3 -5
leaf_value=-0.041246046644716788 0.04137886524374465 0.012694148216381658 -0.035297844522434348 -0.0049221261091126345
leaf_weight=6.373146340250968 6.9695737957954433 9.0438882187008875 7.6801615729928043 8.0707498416304535
leaf_count=58 39 65 63 63
internal_value=-0.00447035 0.00290826 -0.00790545 -0.0197334
internal_weight=38.1375 31.7644 24.7948 15.7509
internal_count=288 230 191 126
is_linear=0
shrinkage=0.05


Tree=28
num_leaves=5
num_cat=0
split_feature=1 1 5 5
split_gain=3.86467 4.85191 4.79561 6.69231
threshold=124.00000000000001 286.50000000000006 -6.4999999999999991 -13.499999999999998
decision_type=2 2 2 2
left_child=-1 -2 3 -3
right_child=1 2 -4 -5
leaf_value=0.022691815718235281 -0.023408866759959322 0.015276041325424745 0.022550314223048817 -0.033713066596198597
leaf_weight=18.035712152719498 20.984148323535919 14.317916899919512 22.233083128929138 13.58665683865547
leaf_count=59 65 46 76 42
internal_value=0.00201984 -0.00322234 0.00522634 -0.00857661
internal_weight=89.1575 71.1218 50.1377 27.9046
internal_count=288 229 164 88
is_linear=0
shrinkage=0.05


Tree=29
num_leaves=1
num_cat=0
split_feature=
split_gain=
threshold=
decision_type=
left_child=
right_child=
leaf_value=0
leaf_weight=
leaf_count=323
internal_value=
internal_weight=
internal_count=
is_linear=0
shrinkage=1


Tree=30
num_leaves=6
num_cat=0
split_feature=1 1 1 4 13
split_gain=4.57406 7.00956 6.39153 3.74595 1.64329
threshold=76.000000000000014 286.50000000000006 567.00000000000011 -10.499999999999998 20.500000000000004
decision_type=2 2 2 2 2
left_child=-1 4 3 -3 -2
right_child=1 2 -4 -5 -6
leaf_value=-0.030214475365800381 0.014099671301547517 -0.00083407273875243265 0.017244903807343871 -0.040244054468731791 0.041086956389574956
leaf_weight=10.439046859741209 11.052728816866876 10.711835712194441 16.489254236221313 13.79438763856888 11.519838422536848
leaf_count=43 40 40 61 63 41
internal_value=0.000459735 0.00549701 -0.00682321 -0.0230177 0.0278725
internal_weight=74.0071 63.568 40.9955 24.5062 22.5726
internal_count=288 245 164 103 81
is_linear=0
shrinkage=0.05


Tree=31
num_leaves=6
num_cat=0
split_feature=1 1 1 5 16
split_gain=3.65006 12.0605 1.46842 1.77952 0.119585
threshold=393.50000000000006 510.50000000000006 65.500000000000014 -6.4999999999999991 1.0000000180025095e-35
decision_type=2 2 2 2 2
left_child=2 -2 -1 4 -4
right_child=1 -3 3 -5 -6
leaf_value=0.0036023633024141475 0.07101336570790244 -0.019206538048269085 -0.031910989267420052 -0.00161086119997713 -0.042230808117807703
leaf_weight=5.3550518080592182 5.6833485960960415 10.637560047209261 5.1588421687483823 4.9605783522129032 6.1582322716712952
leaf_count=37 40 79 45 40 47
internal_value=-0.0056413 0.0122103 -0.0191095 -0.0265813 -0.0375266
internal_weight=37.9536 16.3209 21.6327 16.2777 11.3171
internal_count=288 119 169 132 92
is_linear=0
shrinkage=0.05


Tree=32
num_leaves=5
num_cat=0
split_feature=1 1 5 4
split_gain=2.35073 5.83143 5.40918 6.98128
threshold=124.00000000000001 274.50000000000006 -6.4999999999999991 -13.499999999999998
decision_type=2 2 2 2
left_child=-1 -2 3 -3
right_child=1 2 -4 -5
leaf_value=0.016199690246479617 -0.027423591845354818 0.014218334433843655 0.023229774011789488 -0.034822615221418322
leaf_weight=19.08369904756546 18.817010313272476 15.161445140838625 22.910356402397156 13.919603794813154
leaf_count=63 58 49 79 43
internal_value=0.000624926 -0.00357266 0.0050596 -0.00925505
internal_weight=89.8921 70.8084 51.9914 29.081
internal_count=292 229 171 92
is_linear=0
shrinkage=0.05


Tree=33
num_leaves=1
num_cat=0
split_feature=
split_gain=
threshold=
decision_type=
left_child=
right_child=
leaf_value=0
leaf_weight=
leaf_count=323
internal_value=
internal_weight=
internal_count=
is_linear=0
shrinkage=1


Tree=34
num_leaves=5
num_cat=0
split_feature=1 1 1 1
split_gain=4.51578 5.02433 5.05829 6.71871
threshold=567.00000000000011 414.50000000000006 124.00000000000001 255.00000000000003
decision_type=2 2 2 2
left_child=1 2 -1 -4
right_child=-2 -3 3 -5
leaf_value=-0.022522652770360436 0.02328903824861599 -0.033727226831315682 0.03642263920811941 -0.010810743569117185
leaf_weight=15.070286542177199 15.774791985750197 13.408536985516546 15.156441152095796 14.96020023524761
leaf_count=63 58 58 52 61
internal_value=-0.000456757 -0.00684949 0.00112607 0.0129598
internal_weight=74.3703 58.5955 45.1869 30.1166
internal_count=292 234 176 113
is_linear=0
shrinkage=0.05


Tree=35
num_leaves=6
num_cat=0
split_feature=5 5 1 4 1
split_gain=3.47198 5.79628 3.52718 6.4881 1.65876
threshold=-14.999999999999998 -12.499999999999998 504.00000000000006 -5.4999999999999991 274.50000000000006
decision_type=2 2 2 2 2
left_child=-1 -2 3 4 -3
right_child=1 2 -4 -5 -6
leaf_value=-0.033499900481380018 0.052319817444862839 0.0027798248852315983 -0.034628276503572836 0.047071891007462063 -0.033891225086140592
leaf_weight=6.6199685931205741 5.6282048821449306 6.7249455302953773 6.7867617681622496 6.6799419075250617 5.6953646242618561
leaf_count=63 30 55 55 47 42
internal_value=-0.000582316 0.00633223 -0.00366613 0.00733544 -0.0140358
internal_weight=38.1352 31.5152 25.887 19.1003 12.4203
internal_count=292 229 199 144 97
is_linear=0
shrinkage=0.05


Tree=36
num_leaves=5
num_cat=0
split_feature=12 5 7 1
split_gain=3.49061 4.50147 8.90487 1.73086
threshold=5.5000000000000009 -6.4999999999999991 1.0000000180025095e-35 240.00000000000003
decision_type=2 2 2 2
left_child=3 2 -2 -1
right_child=1 -3 -4 -5
leaf_value=-0.0010319687350382677 -0.024128228589612291 0.023040629493864317 0.027137677024277825 -0.025022852400778013
leaf_weight=12.80955618619919 23.063022673130035 22.761390268802643 13.387421131134031 18.200068116188049
leaf_count=41 71 79 45 58
internal_value=-0.00152255 0.00559467 -0.00529942 -0.0151126
internal_weight=90.2215 59.2118 36.4504 31.0096
internal_count=294 195 116 99
is_linear=0
shrinkage=0.05


Tree=37
num_leaves=1
num_cat=0
split_feature=
split_gain=
threshold=
decision_type=
left_child=
right_child=
leaf_value=0
leaf_weight=
leaf_count=323
internal_value=
internal_weight=
internal_count=
is_linear=0
shrinkage=1


Tree=38
num_leaves=5
num_cat=0
split_feature=1 1 1 4
split_gain=5.15994 6.11433 6.87789 4.00619
threshold=76.000000000000014 255.00000000000003 567.00000000000011 -7.4999999999999991
decision_type=2 2 2 2
left_child=-1 -2 3 -3
right_child=1 2 -4 -5
leaf_value=-0.030031046594858082 0.030899788093064026 -0.0012654573223342851 0.022769699091262904 -0.039238639032638717
leaf_weight=10.89633373916149 19.073530063033104 15.854776740074156 16.459120899438858 12.360798910260202
leaf_count=47 67 61 60 59
internal_value=0.00176603 0.00720103 -0.00291698 -0.0179009
internal_weight=74.6446 63.7482 44.6747 28.2156
internal_count=294 247 180 120
is_linear=0
shrinkage=0.05


Tree=39
num_leaves=6
num_cat=0
split_feature=1 4 4 1 13
split_gain=3.48151 3.2303 7.81062 2.41449 0.458578
threshold=47.500000000000007 -6.4999999999999991 -10.499999999999998 465.50000000000006 18.000000000000004
decision_type=2 2 2 2 2
left_child=-1 2 4 -3 -2
right_child=1 3 -4 -5 -6
leaf_value=0.0365572473565869 -0.011240215668618825 -0.042039783681818446 0.042136196700491957 -0.00023135296157771957 -0.032600333009727221
leaf_weight=5.6084979251027098 4.7757135257124883 8.0694268643856031 8.7263787686824816 6.0367705449461928 5.3027745857834816
leaf_count=36 37 64 60 52 45
internal_value=0.00014387 -0.00606147 0.00750572 -0.0241478 -0.0224788
internal_weight=38.5196 32.9111 18.8049 14.1062 10.0785
internal_count=294 258 142 116 82
is_linear=0
shrinkage=0.05


Tree=40
num_leaves=5
num_cat=0
split_feature=12 5 7 1
split_gain=2.87581 3.78286 5.12117 2.45181
threshold=5.5000000000000009 -6.4999999999999991 1.0000000180025095e-35 231.50000000000003
decision_type=2 2 2 2
left_child=3 2 -2 -1
right_child=1 -3 -4 -5
leaf_value=0.0055268465473275168 -0.017340566645378287 0.023319538471828768 0.021992834119921131 -0.022799872251624741
leaf_weight=12.518238276243208 22.837400078773499 21.826317369937897 12.978084713220595 19.598536401987076
leaf_count=40 70 77 44 62
internal_value=0.00023099 0.0069115 -0.00308773 -0.0117589
internal_weight=89.7586 57.6418 35.8155 32.1168
internal_count=293 191 114 102
is_linear=0
shrinkage=0.05


Tree=41
num_leaves=1
num_cat=0
split_feature=
split_gain=
threshold=
decision_type=
left_child=
right_child=
leaf_value=0
leaf_weight=
leaf_count=323
internal_value=
internal_weight=
internal_count=
is_linear=0
shrinkage=1


Tree=42
num_leaves=6
num_cat=0
split_feature=4 5 1 14 13
split_gain=3.14978 3.39268 4.65859 2.80425 0.489932
threshold=-10.499999999999998 -7.4999999999999991 311.00000000000006 25.500000000000004 27.500000000000004
decision_type=2 2 2 2 2
left_child=3 -2 -3 -1 -4
right_child=1 2 4 -5 -6
leaf_value=-0.0009879694139640423 -0.02821321883432289 0.019797019772247824 -0.0086491354459484245 0.03217465467817953 -0.025337398839515798
leaf_weight=14.205791398882868 14.276325970888136 16.610088005661964 8.6619084924459475 11.563802391290663 8.9342518001794797
leaf_count=52 55 64 38 42 42
internal_value=-0.00023182 -0.00773968 0.00080516 0.0138934 -0.0171224
internal_weight=74.2522 48.4826 34.2062 25.7696 17.5962
internal_count=293 199 144 94 80
is_linear=0
shrinkage=0.05


Tree=43
num_leaves=5
num_cat=0
split_feature=5 5 1 5
split_gain=3.23053 6.88154 2.36843 3.96352
threshold=-13.499999999999998 -7.4999999999999991 504.00000000000006 -5.4999999999999991
decision_type=2 2 2 2
left_child=-1 -2 3 -3
right_child=1 2 -4 -5
leaf_value=-0.026022475291886994 0.03811924085906751 -0.022960061919324478 -0.041388223967046417 0.033069758474955108
leaf_weight=9.1616181433200818 11.524877682328222 7.8356705009937295 4.8156172856688491 5.2853593006730124
leaf_count=76 73 63 43 38
internal_value=-9.11413e-05 0.0079727 -0.0113974 -0.00039036
internal_weight=38.6231 29.4615 17.9366 13.121
internal_count=293 217 144 101
is_linear=0
shrinkage=0.05


Tree=44
num_leaves=5
num_cat=0
split_feature=5 4 1 1
split_gain=2.0492 2.84203 3.35949 2.58571
threshold=-6.4999999999999991 -13.499999999999998 240.00000000000003 311.00000000000006
decision_type=2 2 2 2
left_child=1 -1 -3 -2
right_child=3 2 -4 -5
leaf_value=0.009674948139557462 -0.0059873816313799014 0.0031323519251712675 -0.02937925545060191 0.02326383091390755
leaf_weight=24.67655485868454 11.843949079513548 16.072673201560978 15.714464485645292 20.862774729728699
leaf_count=79 38 52 48 75
internal_value=0.00271216 -0.00305665 -0.0129403 0.0126712
internal_weight=89.1704 56.4637 31.7871 32.7067
internal_count=292 179 100 113
is_linear=0
shrinkage=0.05


Tree=45
num_leaves=1
num_cat=0
split_feature=
split_gain=
threshold=
decision_type=
left_child=
right_child=
leaf_value=0
leaf_weight=
leaf_count=323
internal_value=
internal_weight=
internal_count=
is_linear=0
shrinkage=1


Tree=46
num_leaves=5
num_cat=0
split_feature=1 1 1 5
split_gain=3.0803 4.60034 4.94596 3.71707
threshold=76.000000000000014 235.00000000000003 567.00000000000011 -6.4999999999999991
decision_type=2 2 2 2
left_child=-1 -2 3 -3
right_child=1 2 -4 -5
leaf_value=-0.028718160785302427 0.021502040429941457 -0.006075705787032263 0.013982547881366453 -0.042980259684178283
leaf_weight=10.392583072185515 18.670773640275002 17.40855285525322 16.271390467882156 11.221062913537027
leaf_count=46 65 67 59 55
internal_value=-0.00348187 0.00064371 -0.00802962 -0.02054
internal_weight=73.9644 63.5718 44.901 28.6296
internal_count=292 246 181 122
is_linear=0
shrinkage=0.05


Tree=47
num_leaves=6
num_cat=0
split_feature=5 5 12 13 14
split_gain=2.82189 6.59079 3.41112 0.944968 0.128272
threshold=-14.999999999999998 -12.499999999999998 5.5000000000000009 10.500000000000002 33.500000000000007
decision_type=2 2 2 2 2
left_child=-1 -2 -3 -4 -5
right_child=1 2 3 4 -6
leaf_value=-0.031987380289764666 0.053425955591805963 0.017001523466292207 -0.0013364540575261309 -0.022029656316128479 -0.032977331976055485
leaf_weight=5.714147947728633 6.0004809349775305 10.793325424194338 4.8964978381991378 5.0423874482512456 5.7005200311541557
leaf_count=59 30 73 39 42 49
internal_value=0.000411295 0.00611936 -0.00461969 -0.0195413 -0.0278388
internal_weight=38.1474 32.4332 26.4327 15.6394 10.7429
internal_count=292 233 203 130 91
is_linear=0
shrinkage=0.05


Tree=48
num_leaves=5
num_cat=0
split_feature=1 1 5 4
split_gain=2.30883 4.70697 5.33577 5.37569
threshold=141.50000000000003 286.50000000000006 -6.4999999999999991 -13.499999999999998
decision_type=2 2 2 2
left_child=-1 -2 3 -3
right_child=1 2 -4 -5
leaf_value=0.017479421793699778 -0.021698735143538875 0.015655752462162019 0.025606500315273274 -0.027635126865007908
leaf_weight=19.801129668951035 20.989400893449783 13.422091186046602 21.126372575759888 15.397402435541151
leaf_count=66 64 44 77 47
internal_value=0.00238344 -0.0018305 0.00651898 -0.00747328
internal_weight=90.7364 70.9353 49.9459 28.8195
internal_count=298 232 168 91
is_linear=0
shrinkage=0.05


Tree=49
num_leaves=1
num_cat=0
split_feature=
split_gain=
threshold=
decision_type=
left_child=
right_child=
leaf_value=0
leaf_weight=
leaf_count=323
internal_value=
internal_weight=
internal_count=
is_linear=0
shrinkage=1


Tree=50
num_leaves=5
num_cat=0
split_feature=1 1 4 1
split_gain=3.40852 6.46541 5.83086 3.57273
threshold=141.50000000000003 286.50000000000006 -10.499999999999998 536.50000000000011
decision_type=2 2 2 2
left_child=-1 -2 -3 -4
right_child=1 2 3 -5
leaf_value=-0.025480483091371926 0.024871077365089617 0.01134902195954466 -0.046330270323334685 -0.0069240001630139162
leaf_weight=15.210918039083479 19.27664253115654 17.628718793392178 11.644917026162153 11.365964487195013
leaf_count=66 64 64 59 45
internal_value=-0.0043432 0.00102292 -0.010289 -0.026866
internal_weight=75.1272 59.9162 40.6396 23.0109
internal_count=298 232 168 104
is_linear=0
shrinkage=0.05


Tree=51
num_leaves=4
num_cat=0
split_feature=5 5 5
split_gain=2.99471 4.36231 2.14801
threshold=-13.499999999999998 -7.4999999999999991 -5.4999999999999991
decision_type=2 2 2
left_child=-1 -2 -3
right_child=1 2 -4
leaf_value=-0.021614331075621985 0.033799086231468288 -0.023751551436464676 0.011180172718436285
leaf_weight=9.5129369944334012 12.06065660715103 8.2893084585666674 9.3815651088953036
leaf_count=79 73 71 75
internal_value=0.00280363 0.0106164 -0.0052061
internal_weight=39.2445 29.7315 17.6709
internal_count=298 219 146
is_linear=0
shrinkage=0.05


Tree=52
num_leaves=6
num_cat=0
split_feature=4 5 0 1 1
split_gain=2.50962 6.36743 4.70312 6.80962 4.87714
threshold=-5.4999999999999991 -4.4999999999999991 1.5000000000000002 192.00000000000003 422.00000000000006
decision_type=2 2 2 2 2
left_child=2 -2 -1 -4 -5
right_child=1 -3 3 4 -6
leaf_value=0.03054826539855289 -0.040834345780915875 0.0090335051145176409 0.028918044316839604 -0.032606821471843288 0.0040319237980607206
leaf_weight=13.902215987443922 11.736982941627504 14.080676168203352 12.844884425401686 17.348562031984329 19.063789814710617
leaf_count=49 38 50 42 54 61
internal_value=-0.000502987 -0.013637 0.00486578 -0.00238277 -0.0134245
internal_weight=88.9771 25.8177 63.1595 49.2572 36.4124
internal_count=294 88 206 157 115
is_linear=0
shrinkage=0.05


Tree=53
num_leaves=1
num_cat=0
split_feature=
split_gain=
threshold=
decision_type=
left_child=
right_child=
leaf_value=0
leaf_weight=
leaf_count=323
internal_value=
internal_weight=
internal_count=
is_linear=0
shrinkage=1


Tree=54
num_leaves=5
num_cat=0
split_feature=1 1 1 0
split_gain=3.33346 4.15467 2.87554 4.19638
threshold=567.00000000000011 414.50000000000006 124.00000000000001 1.5000000000000002
decision_type=2 2 2 2
left_child=1 2 -1 -4
right_child=-2 -3 3 -5
leaf_value=-0.018452298264411832 0.01911348984303356 -0.031745976518725121 -0.014648563818669389 0.023419706325951792
leaf_weight=13.527837023138998 16.489535391330719 12.605932727456091 11.562235906720163 19.361452654004097
leaf_count=60 60 59 48 67
internal_value=-0.000687525 -0.00640999 0.000774995 0.00918614
internal_weight=73.547 57.0575 44.4515 30.9237
internal_count=294 234 175 115
is_linear=0
shrinkage=0.05


Tree=55
num_leaves=6
num_cat=0
split_feature=5 5 4 5 14
split_gain=3.03055 6.37996 3.83978 3.50814 1.72803
threshold=-14.999999999999998 -12.499999999999998 -5.4999999999999991 -4.4999999999999991 10.500000000000002
decision_type=2 2 2 2 2
left_child=-1 -2 4 -4 -3
right_child=1 2 3 -5 -6
leaf_value=-0.031573365900646071 0.052730187373537497 0.0034161342673749077 0.047992923109925693 -0.0076256613069231264 -0.03200862135159168
leaf_weight=5.5818764492869368 6.4781092107295981 5.3690269738435736 5.4890270531177521 5.8639894425869006 9.5940569415688497
leaf_count=61 31 38 38 50 76
internal_value=0.00248383 0.00828068 -0.00266124 0.0192652 -0.0192976
internal_weight=38.3761 32.7942 26.3161 11.353 14.9631
internal_count=294 233 202 88 114
is_linear=0
shrinkage=0.05


Tree=56
num_leaves=5
num_cat=0
split_feature=0 1 1 4
split_gain=2.61346 3.71741 4.22029 3.56596
threshold=1.5000000000000002 192.00000000000003 432.50000000000006 -5.4999999999999991
decision_type=2 2 2 2
left_child=3 -2 -3 -1
right_child=1 2 -4 -5
leaf_value=0.029642918768124207 0.013239631586998972 -0.031892719312553476 -6.9536443671303438e-05 -0.0049673821610764848
leaf_weight=13.959274768829347 16.327524065971375 19.496807724237442 22.373885631561279 15.941237539052961
leaf_count=50 54 60 73 55
internal_value=-0.000823896 -0.00699663 -0.0148878 0.0111907
internal_weight=88.0987 58.1982 41.8707 29.9005
internal_count=292 187 133 105
is_linear=0
shrinkage=0.05


Tree=57
num_leaves=1
num_cat=0
split_feature=
split_gain=
threshold=
decision_type=
left_child=
right_child=
leaf_value=0
leaf_weight=
leaf_count=323
internal_value=
internal_weight=
internal_count=
is_linear=0
shrinkage=1


Tree=58
num_leaves=6
num_cat=0
split_feature=4 5 14 12 7
split_gain=2.75185 4.11455 2.56125 3.71255 1.80667
threshold=-10.499999999999998 -7.4999999999999991 33.500000000000007 5.5000000000000009 1.0000000180025095e-35
decision_type=2 2 2 2 2
left_child=4 -2 3 -3 -1
right_child=1 2 -4 -5 -6
leaf_value=0.025007954323842181 -0.030204159515184622 0.017648722808701677 0.022850346078036571 -0.023366044509864875 -0.0016169324778699174
leaf_weight=15.140482679009438 13.118743121623991 9.3014563918113726 10.816294491291044 13.561966612935064 11.001067921519279
leaf_count=53 51 37 48 61 42
internal_value=0.000809285 -0.00644926 0.00280363 -0.00668013 0.0138035
internal_weight=72.94 46.7985 33.6797 22.8634 26.1416
internal_count=292 197 146 98 95
is_linear=0
shrinkage=0.05


Tree=59
num_leaves=6
num_cat=0
split_feature=5 5 12 1 1
split_gain=2.50011 7.14059 2.2709 0.917861 1.21545
threshold=-14.999999999999998 -12.499999999999998 5.5000000000000009 201.50000000000003 484.00000000000006
decision_type=2 2 2 2 2
left_child=-1 -2 -3 -4 -5
right_child=1 2 3 4 -6
leaf_value=-0.031185384828413765 0.052757455296243982 0.011215725103240181 -0.00074660819438684609 -0.04201907693010043 -0.0071268011136241902
leaf_weight=5.3879509121179572 6.4345024526119223 10.991219542920591 4.8409072235226622 5.8687177300453168 4.3427484631538391
leaf_count=60 30 74 39 49 40
internal_value=0.000357969 0.00559085 -0.00606244 -0.0186789 -0.02718
internal_weight=37.866 32.4781 26.0436 15.0524 10.2115
internal_count=292 232 202 128 89
is_linear=0
shrinkage=0.05


Tree=60
num_leaves=5
num_cat=0
split_feature=1 4 7 0
split_gain=2.34312 3.58589 3.7848 7.93677
threshold=567.00000000000011 -5.4999999999999991 1.0000000180025095e-35 1.5000000000000002
decision_type=2 2 2 2
left_child=1 2 3 -1
right_child=-2 -3 -4 -5
leaf_value=0.035120469964825443 -0.013343476630822132 -0.012609262778749389 0.034975775526714763 -0.01376670429995808
leaf_weight=13.295374780893324 19.123090595006943 18.071859210729599 14.42755952477455 22.106484591960907
leaf_count=48 61 62 50 68
internal_value=0.00211642 0.0064704 0.0133901 0.00459316
internal_weight=87.0244 67.9013 49.8294 35.4019
internal_count=289 228 166 116
is_linear=0
shrinkage=0.05


Tree=61
num_leaves=1
num_cat=0
split_feature=
split_gain=
threshold=
decision_type=
left_child=
right_child=
leaf_value=0
leaf_weight=
leaf_count=323
internal_value=
internal_weight=
internal_count=
is_linear=0
shrinkage=1


Tree=62
num_leaves=5
num_cat=0
split_feature=1 1 1 1
split_gain=4.55118 4.29608 3.50994 2.25485
threshold=567.00000000000011 414.50000000000006 124.00000000000001 286.50000000000006
decision_type=2 2 2 2
left_child=1 2 -1 -4
right_child=-2 -3 3 -5
leaf_value=-0.024586530334556735 0.019916730148128305 -0.037990480013277428 0.016386687873859006 -0.011523756053665167
leaf_weight=13.09804731607437 16.889178290963173 10.822581335902212 19.91129902005196 11.367859184741972
leaf_count=60 61 52 66 50
internal_value=-0.00279562 -0.0097448 -0.00285633 0.00624313
internal_weight=72.089 55.1998 44.3772 31.2792
internal_count=289 228 176 116
is_linear=0
shrinkage=0.05


Tree=63
num_leaves=4
num_cat=0
split_feature=5 5 5
split_gain=2.61345 4.16666 2.0682
threshold=-13.499999999999998 -7.4999999999999991 -5.4999999999999991
decision_type=2 2 2
left_child=-1 -2 -3
right_child=1 2 -4
leaf_value=-0.024362420836465001 0.029089971005476386 -0.028409563478654927 0.0069855590016106575
leaf_weight=8.2704833894968015 12.657699853181837 7.5104341655969646 9.1615379825234431
leaf_count=74 74 67 74
internal_value=0.000461526 0.00746147 -0.00895933
internal_weight=37.6002 29.3297 16.672
internal_count=289 215 141
is_linear=0
shrinkage=0.05


Tree=64
num_leaves=6
num_cat=0
split_feature=7 5 1 13 1
split_gain=1.906 3.09586 4.38778 1.72761 0.831028
threshold=1.0000000180025095e-35 -6.4999999999999991 192.00000000000003 27.500000000000004 339.50000000000006
decision_type=2 2 2 2 2
left_child=1 2 -1 -2 -3
right_child=3 4 -4 -5 -6
leaf_value=0.0076455279348869101 -0.00028050017594522675 -0.0033120038908872012 -0.028173664993158265 0.0265006761950414 0.013865929464705213
leaf_weight=14.24427208304405 12.529680013656618 10.893122062087061 21.38631933927536 11.593792229890822 19.908043920993805
leaf_count=45 42 37 65 40 74
internal_value=0.000552902 -0.00381836 -0.013854 0.0125906 0.00779079
internal_weight=90.5552 66.4318 35.6306 24.1235 30.8012
internal_count=303 221 110 82 111
is_linear=0
shrinkage=0.05


Tree=65
num_leaves=1
num_cat=0
split_feature=
split_gain=
threshold=
decision_type=
left_child=
right_child=
leaf_value=0
leaf_weight=
leaf_count=323
internal_value=
internal_weight=
internal_count=
is_linear=0
shrinkage=1


Tree=66
num_leaves=5
num_cat=0
split_feature=1 1 13 1
split_gain=3.24318 5.13082 3.35462 3.41671
threshold=567.00000000000011 414.50000000000006 33.500000000000007 192.00000000000003
decision_type=2 2 2 2
left_child=1 2 3 -1
right_child=-2 -3 -4 -5
leaf_value=-0.021136737092251279 0.019158112988381586 -0.034591563385095524 0.027166804007106794 0.0098884290426049723
leaf_weight=17.372613042593002 17.013051480054855 12.126205354928969 10.262300118803976 18.139986678957939
leaf_count=74 61 59 40 69
internal_value=-3.41314e-05 -0.00567338 0.00198732 -0.00528895
internal_weight=74.9142 57.9011 45.7749 35.5126
internal_count=303 242 183 143
is_linear=0
shrinkage=0.05


Tree=67
num_leaves=6
num_cat=0
split_feature=5 5 4 5 1
split_gain=2.25121 6.56069 3.46251 1.72078 1.72067
threshold=-14.999999999999998 -12.499999999999998 -5.4999999999999991 -4.4999999999999991 274.50000000000006
decision_type=2 2 2 2 2
left_child=-1 -2 4 -4 -3
right_child=1 2 3 -5 -6
leaf_value=-0.031077457612257893 0.047977036885889279 -0.0035867493929510105 0.031933134493458033 -0.0065182726962857611 -0.037496270311121703
leaf_weight=5.433547541499137 6.6772418469190589 6.5246937349438658 5.9582075104117393 5.6867037788033503 8.768846318125723
leaf_count=64 30 54 39 49 67
internal_value=-0.0012167 0.00360991 -0.00738739 0.0131557 -0.0230294
internal_weight=39.0492 33.6157 26.9385 11.6449 15.2935
internal_count=303 239 209 88 121
is_linear=0
shrinkage=0.05


end of trees

feature_importances:
Column_1=86
Column_5=56
Column_4=34
Column_7=11
Column_12=11
Column_13=10
Column_14=6
Column_0=5
Column_15=1
Column_16=1

parameters:
[boosting: gbdt]
[objective: multiclass]
[metric: multi_logloss]
[tree_learner: serial]
[device_type: cpu]
[data_sample_strategy: bagging]
[data: ]
[valid: ]
[num_iterations: 2000]
[learning_rate: 0.05]
[num_leaves: 63]
[num_threads: 0]
[seed: 42]
[deterministic: 0]
[force_col_wise: 0]
[force_row_wise: 0]
[histogram_pool_size: -1]
[max_depth: -1]
[min_data_in_leaf: 40]
[min_sum_hessian_in_leaf: 0.001]
[bagging_fraction: 0.9]
[pos_bagging_fraction: 1]
[neg_bagging_fraction: 1]
[bagging_freq: 1]
[bagging_seed: 400]
[bagging_by_query: 0]
[feature_fraction: 0.9]
[feature_fraction_bynode: 1]
[feature_fraction_seed: 30056]
[extra_trees: 0]
[extra_seed: 12879]
[early_stopping_round: 0]
[early_stopping_min_delta: 0]
[first_metric_only: 0]
[max_delta_step: 0]
[lambda_l1: 0]
[lambda_l2: 0]
[linear_lambda: 0]
[min_gain_to_split: 0]
[drop_rate: 0.1]
[max_drop: 50]
[skip_drop: 0.5]
[xgboost_dart_mode: 0]
[uniform_drop: 0]
[drop_seed: 17869]
[top_rate: 0.2]
[other_rate: 0.1]
[min_data_per_group: 100]
[max_cat_threshold: 32]
[cat_l2: 10]
[cat_smooth: 10]
[max_cat_to_onehot: 4]
[top_k: 20]
[monotone_constraints: ]
[monotone_constraints_method: basic]
[monotone_penalty: 0]
[feature_contri: ]
[forcedsplits_filename: ]
[refit_decay_rate: 0.9]
[cegb_tradeoff: 1]
[cegb_penalty_split: 0]
[cegb_penalty_feature_lazy: ]
[cegb_penalty_feature_coupled: ]
[path_smooth: 0]
[interaction_constraints: ]
[verbosity: -1]
[saved_feature_importance_type: 0]
[use_quantized_grad: 0]
[num_grad_quant_bins: 4]
[quant_train_renew_leaf: 0]
[stochastic_rounding: 1]
[linear_tree: 0]
[max_bin: 255]
[max_bin_by_feature: ]
[min_data_in_bin: 3]
[bin_construct_sample_cnt: 200000]
[data_random_seed: 175]
[is_enable_sparse: 1]
[enable_bundle: 1]
[use_missing: 1]
[zero_as_missing: 0]
[feature_pre_filter: 1]
[pre_partition: 0]
[two_round: 0]
[header: 0]
[label_column: ]
[weight_column: ]
[group_column: ]
[ignore_column: ]
[categorical_feature: ]
[forcedbins_filename: ]
[precise_float_parser: 0]
[parser_config_file: ]
[objective_seed: 16083]
[num_class: 4]
[is_unbalance: 0]
[scale_pos_weight: 1]
[sigmoid: 1]
[boost_from_average: 1]
[reg_sqrt: 0]
[alpha: 0.9]
[fair_c: 1]
[poisson_max_delta_step: 0.7]
[tweedie_variance_power: 1.5]
[lambdarank_truncation_level: 30]
[lambdarank_norm: 1]
[label_gain: ]
[lambdarank_position_bias_regularization: 0]
[eval_at: ]
[multi_error_top_k: 1]
[auc_mu_weights: ]
[num_machines: 1]
[local_listen_port: 12400]
[time_out: 120]
[machine_list_filename: ]
[machines: ]
[gpu_platform_id: -1]
[gpu_device_id: -1]
[gpu_use_dp: 0]
[num_gpu: 1]

end of parameters

pandas_categorical:null
